{"learner":{"attributes":{"scikit_learn":"{\"_estimator_type\": \"regressor\"}"},"feature_names":["race_season","finish_2_5","finish_6_10","lead_lap_finishes","avg_finishing_position","avg_diff_laps","pct_laps_led","num_accidents","most_likely_dnf_cause_Axle","most_likely_dnf_cause_Battery","most_likely_dnf_cause_Brakes","most_likely_dnf_cause_Clutch","most_likely_dnf_cause_DVP","most_likely_dnf_cause_Driveshaft","most_likely_dnf_cause_Electrical","most_likely_dnf_cause_Engine","most_likely_dnf_cause_Fuel Pump","most_likely_dnf_cause_Handling","most_likely_dnf_cause_Oil Leak","most_likely_dnf_cause_Overheating","most_likely_dnf_cause_Parked","most_likely_dnf_cause_Rear End","most_likely_dnf_cause_Rear Gear","most_likely_dnf_cause_Steering","most_likely_dnf_cause_Suspension","most_likely_dnf_cause_Too Slow","most_likely_dnf_cause_Transmission","most_likely_dnf_cause_Vibration"],"feature_types":["float","float","float","float","float","float","float","float","float","float","float","float","float","float","float","float","float","float","float","float","float","float","float","float","float","float","float","float"],"gradient_booster":{"model":{"gbtree_model_param":{"num_parallel_tree":"1","num_trees":"50"},"iteration_indptr":[0,1,2,3,4,5,6,7,8,9,10,11,12,13,14,15,16,17,18,19,20,21,22,23,24,25,26,27,28,29,30,31,32,33,34,35,36,37,38,39,40,41,42,43,44,45,46,47,48,49,50],"tree_info":[0,0,0,0,0,0,0,0,0,0,0,0,0,0,0,0,0,0,0,0,0,0,0,0,0,0,0,0,0,0,0,0,0,0,0,0,0,0,0,0,0,0,0,0,0,0,0,0,0,0],"trees":[{"base_weights":[-1.0219617E-2,-3.5197094E-1,2.9518685E0,-4.6820262E-1,6.2863165E-1,2.061825E0,4.269325E0,-4.9985307E-1,-2.9952165E-1,-1.1306816E-2,7.9414177E-1,3.654599E-1,2.2586432E0,1.3364384E0,2.2309199E-1,-1.5207061E-1,-3.3324015E-1,3.8551856E-2,-3.6799306E-1,2.3939987E-1,-1.1536205E-1,1.1133399E0,5.6291586E-1,-7.690803E-2,1.9745597E-1,2.6443248E0,1.3220266E0,-1.1890713E-1,7.309198E-2,5.291096E-2,-1.0254404E-1,9.745597E-2,-1.2233196E-1,-7.690803E-2,1.1694716E-1,1.7181997E-1,4.2530057E-1,3.3958626E-1,7.145653E-2,2.2309199E-1,8.1643844E-1,4.6541098E-1,-7.690803E-2],"categories":[],"categories_nodes":[],"categories_segments":[],"categories_sizes":[],"default_left":[0,0,0,0,0,0,0,0,0,0,0,0,0,0,0,0,0,0,0,0,0,0,0,0,0,0,0,0,0,0,0,0,0,0,0,0,0,0,0,0,0,0,0],"id":0,"left_children":[1,3,5,7,9,11,13,15,17,19,21,23,25,-1,-1,-1,27,29,31,33,-1,35,37,-1,-1,39,41,-1,-1,-1,-1,-1,-1,-1,-1,-1,-1,-1,-1,-1,-1,-1,-1],"loss_changes":[4.1101944E2,4.1781986E1,4.044632E1,1.590744E0,4.1397123E0,8.189194E0,7.1497498E0,1.5170288E-1,1.2641988E0,9.3420756E-1,1.6612988E0,8.96826E-1,5.17379E0,0E0,0E0,0E0,6.06321E-1,5.8449745E-1,1.372735E0,5.4738045E-1,0E0,1.1623182E0,3.4260283E0,0E0,0E0,3.2200623E-1,3.6556425E0,0E0,0E0,0E0,0E0,0E0,0E0,0E0,0E0,0E0,0E0,0E0,0E0,0E0,0E0,0E0,0E0],"parents":[2147483647,0,0,1,1,2,2,3,3,4,4,5,5,6,6,7,7,8,8,9,9,10,10,11,11,12,12,16,16,17,17,18,18,19,19,21,21,22,22,25,25,26,26],"right_children":[2,4,6,8,10,12,14,16,18,20,22,24,26,-1,-1,-1,28,30,32,34,-1,36,38,-1,-1,40,42,-1,-1,-1,-1,-1,-1,-1,-1,-1,-1,-1,-1,-1,-1,-1,-1],"split_conditions":[5.2171435E-2,1.6276041E-2,1.0923946E-1,2.2439025E-3,2.5E1,6E0,1.7E1,5E0,1.6555555E1,2.023E3,3.1E1,6.0423918E-2,1.3611111E1,1.3364384E0,2.2309199E-1,-1.5207061E-1,2.024E3,2.023E3,2.4976584E-3,2.02E3,-1.1536205E-1,8E0,8E0,-7.690803E-2,1.9745597E-1,2.6E1,9E0,-1.1890713E-1,7.309198E-2,5.291096E-2,-1.0254404E-1,9.745597E-2,-1.2233196E-1,-7.690803E-2,1.1694716E-1,1.7181997E-1,4.2530057E-1,3.3958626E-1,7.145653E-2,2.2309199E-1,8.1643844E-1,4.6541098E-1,-7.690803E-2],"split_indices":[6,6,6,6,3,1,1,7,4,0,3,6,4,0,0,0,0,0,6,0,0,2,2,0,0,3,1,0,0,0,0,0,0,0,0,0,0,0,0,0,0,0,0],"split_type":[0,0,0,0,0,0,0,0,0,0,0,0,0,0,0,0,0,0,0,0,0,0,0,0,0,0,0,0,0,0,0,0,0,0,0,0,0,0,0,0,0,0,0],"sum_hessian":[4.04E2,3.63E2,4.1E1,3.25E2,3.8E1,2.6E1,1.5E1,2.72E2,5.3E1,8E0,3E1,3E0,2.3E1,1.4E1,1E0,2.59E2,1.3E1,9E0,4.4E1,5E0,3E0,1.1E1,1.9E1,1E0,2E0,1.5E1,8E0,1.2E1,1E0,7E0,2E0,2E0,4.2E1,1E0,4E0,5E0,6E0,6E0,1.3E1,1E0,1.4E1,7E0,1E0],"tree_param":{"num_deleted":"0","num_feature":"28","num_nodes":"43","size_leaf_vector":"1"}},{"base_weights":[1.3926596E-2,-2.516946E-1,1.9326199E0,-3.259695E-1,2.5271055E-1,1.3722955E0,3.3787265E0,-3.338442E-1,2.195824E-1,-3.128686E-1,3.6224702E-1,1.626017E0,5.262928E-2,1.0664815E0,1.8962818E-1,-1.0705515E-1,-2.544371E-1,-5.4097436E-2,1.0939212E-1,-1.2314063E-1,5.55499E-2,2.1960692E-1,7.5394267E-1,-1.0652642E-1,1.7038901E0,2.0292725E-1,-1.2737378E-1,-8.86126E-2,-3.456382E-2,2.0637356E-2,1.8772541E-1,3.7061965E-1,7.622023E-3,5.986059E-1,2.7642888E-1,-7.649707E-2,1.4869007E-1],"categories":[],"categories_nodes":[],"categories_segments":[],"categories_sizes":[],"default_left":[0,0,0,0,0,0,0,0,0,0,0,0,0,0,0,0,0,0,0,0,0,0,0,0,0,0,0,0,0,0,0,0,0,0,0,0,0],"id":1,"left_children":[1,3,5,7,9,11,13,15,17,19,21,23,25,-1,-1,-1,27,-1,-1,-1,-1,29,31,-1,33,35,-1,-1,-1,-1,-1,-1,-1,-1,-1,-1,-1],"loss_changes":[2.0536398E2,1.3344858E1,3.506752E1,1.4007912E0,2.9631066E0,1.2303055E1,4.0448E0,4.6639633E-1,3.5580236E-1,4.6487135E-1,2.0134177E0,5.3875504E0,5.88223E-1,0E0,0E0,0E0,3.7633944E-1,0E0,0E0,0E0,0E0,1.7945428E0,3.476194E0,0E0,5.003166E0,9.3059367E-1,0E0,0E0,0E0,0E0,0E0,0E0,0E0,0E0,0E0,0E0,0E0],"parents":[2147483647,0,0,1,1,2,2,3,3,4,4,5,5,6,6,7,7,8,8,9,9,10,10,11,11,12,12,16,16,21,21,22,22,24,24,25,25],"right_children":[2,4,6,8,10,12,14,16,18,20,22,24,26,-1,-1,-1,28,-1,-1,-1,-1,30,32,-1,34,36,-1,-1,-1,-1,-1,-1,-1,-1,-1,-1,-1],"split_conditions":[5.018499E-2,1.2548772E-2,1.2427663E-1,6E0,2E0,1.1E1,1.7E1,1E0,2.2439025E-3,1E0,3.6637932E-2,1E0,9.037224E-2,1.0664815E0,1.8962818E-1,-1.0705515E-1,1.4638889E1,-5.4097436E-2,1.0939212E-1,-1.2314063E-1,5.55499E-2,8E0,3.1E1,-1.0652642E-1,1.0166667E1,6.0423918E-2,-1.2737378E-1,-8.86126E-2,-3.456382E-2,2.0637356E-2,1.8772541E-1,3.7061965E-1,7.622023E-3,5.986059E-1,2.7642888E-1,-7.649707E-2,1.4869007E-1],"split_indices":[6,6,6,1,1,2,1,1,6,15,6,1,6,0,0,0,5,0,0,0,0,1,3,0,5,6,0,0,0,0,0,0,0,0,0,0,0],"split_type":[0,0,0,0,0,0,0,0,0,0,0,0,0,0,0,0,0,0,0,0,0,0,0,0,0,0,0,0,0,0,0,0,0,0,0,0,0],"sum_hessian":[4.01E2,3.53E2,4.8E1,3.08E2,4.5E1,3.6E1,1.2E1,3.04E2,4E0,7E0,3.8E1,3E1,6E0,1.1E1,1E0,2.33E2,7.1E1,1E0,3E0,6E0,1E0,2.9E1,9E0,1E0,2.9E1,5E0,1E0,5.4E1,1.7E1,2.2E1,7E0,5E0,4E0,2E1,9E0,2E0,3E0],"tree_param":{"num_deleted":"0","num_feature":"28","num_nodes":"37","size_leaf_vector":"1"}},{"base_weights":[2.0139059E-2,-1.225876E-1,2.2553508E0,-2.3601048E-1,4.0403453E-1,3.3481061E0,1.4997165E0,-2.4803635E-1,-8.236737E-2,2.0497482E-1,7.5214255E-1,4.68246E-1,1.1944839E0,-1.0826771E-1,4.94345E-1,-2.5132287E-1,-1.18594825E-1,1.5304685E-1,-1.9130673E-1,-9.704396E-2,6.466155E-1,5.1674336E-1,5.3150046E-1,-7.6390386E-2,-4.9191546E-2,-8.90408E-2,2.4999594E-2,1.1106106E-1,-8.0969244E-2,-4.663355E-2,1.2659419E-1,4.0151387E-1,1.2571122E-1,-2.3263514E-2,2.0381004E-1],"categories":[],"categories_nodes":[],"categories_segments":[],"categories_sizes":[],"default_left":[0,0,0,0,0,0,0,0,0,0,0,0,0,0,0,0,0,0,0,0,0,0,0,0,0,0,0,0,0,0,0,0,0,0,0],"id":2,"left_children":[1,3,5,7,9,11,13,15,17,19,21,-1,-1,-1,-1,23,25,-1,27,29,31,-1,33,-1,-1,-1,-1,-1,-1,-1,-1,-1,-1,-1,-1],"loss_changes":[1.2756718E2,2.2554213E1,1.4796143E1,5.523548E-1,4.4885473E0,3.9757385E0,5.003586E0,9.228706E-2,1.6467754E0,5.9316363E0,4.222823E0,0E0,0E0,0E0,0E0,3.8957596E-2,3.4859762E-1,0E0,1.0266366E0,8.840094E-1,2.272915E0,0E0,1.9438853E0,0E0,0E0,0E0,0E0,0E0,0E0,0E0,0E0,0E0,0E0,0E0,0E0],"parents":[2147483647,0,0,1,1,2,2,3,3,4,4,5,5,6,6,7,7,8,8,9,9,10,10,15,15,16,16,18,18,19,19,20,20,22,22],"right_children":[2,4,6,8,10,12,14,16,18,20,22,-1,-1,-1,-1,24,26,-1,28,30,32,-1,34,-1,-1,-1,-1,-1,-1,-1,-1,-1,-1,-1,-1],"split_conditions":[9.037224E-2,1.6276041E-2,9.916667E0,6.451001E-3,5.2171435E-2,1E0,1E0,6E0,7.0967744E-3,4E0,5.438849E-2,4.68246E-1,1.1944839E0,-1.0826771E-1,4.94345E-1,4.1935486E-3,1.6805555E1,1.5304685E-1,1.5083333E1,5.0537635E-2,2.0672843E-2,5.1674336E-1,3E0,-7.6390386E-2,-4.9191546E-2,-8.90408E-2,2.4999594E-2,1.1106106E-1,-8.0969244E-2,-4.663355E-2,1.2659419E-1,4.0151387E-1,1.2571122E-1,-2.3263514E-2,2.0381004E-1],"split_indices":[6,6,4,6,6,7,7,7,6,7,6,0,0,0,0,6,5,0,4,6,6,0,7,0,0,0,0,0,0,0,0,0,0,0,0],"split_type":[0,0,0,0,0,0,0,0,0,0,0,0,0,0,0,0,0,0,0,0,0,0,0,0,0,0,0,0,0,0,0,0,0,0,0],"sum_hessian":[3.98E2,3.75E2,2.3E1,3.09E2,6.6E1,8E0,1.5E1,2.86E2,2.3E1,4.3E1,2.3E1,3E0,5E0,1E0,1.4E1,2.78E2,8E0,3E0,2E1,2.6E1,1.7E1,3E0,2E1,2.66E2,1.2E1,4E0,4E0,2E0,1.8E1,2.4E1,2E0,3E0,1.4E1,4E0,1.6E1],"tree_param":{"num_deleted":"0","num_feature":"28","num_nodes":"35","size_leaf_vector":"1"}},{"base_weights":[1.7681604E-2,-1.1102106E-1,1.0669304E0,-1.5891567E-1,2.633757E-1,2.3072135E0,7.3640394E-1,-1.7701015E-1,-7.4030325E-2,-1.5606266E-1,4.3635315E-1,2.8198564E0,1.02592744E-1,8.5223377E-1,-4.089117E-3,-1.7286883E-1,-7.997076E-2,-1.4035127E-1,4.386897E-1,-4.7040645E-2,-3.2108977E-1,1.6765803E-1,9.569776E-1,9.06144E-1,2.4241713E-1,8.9844733E-1,-8.7057926E-2,1.6291463E-1,-2.2539775E-1,-5.2632738E-2,7.366932E-2,-3.0639224E-2,-8.8345945E-2,1.7665178E-1,-6.9331124E-2,1.2967086E-2,-7.2593115E-2,2.6155196E-2,-1.3348627E-1,3.28779E-1,-1.4381689E-2,1.2662892E-1,3.729647E-1,4.0232712E-1,2.2852299E-1,1.2147837E-1,-8.4468774E-2,-9.202756E-2,-9.401429E-3],"categories":[],"categories_nodes":[],"categories_segments":[],"categories_sizes":[],"default_left":[0,0,0,0,0,0,0,0,0,0,0,0,0,0,0,0,0,0,0,0,0,0,0,0,0,0,0,0,0,0,0,0,0,0,0,0,0,0,0,0,0,0,0,0,0,0,0,0,0],"id":3,"left_children":[1,3,5,7,9,11,13,15,17,19,21,23,-1,25,27,29,-1,31,33,35,37,39,41,-1,-1,43,-1,45,47,-1,-1,-1,-1,-1,-1,-1,-1,-1,-1,-1,-1,-1,-1,-1,-1,-1,-1,-1,-1],"loss_changes":[5.5620346E1,6.622748E0,1.6748543E1,4.876175E-1,3.1153402E0,8.102863E0,3.1770191E0,5.331707E-2,2.067811E0,2.1878645E-1,4.036233E0,3.845787E-1,0E0,1.9501839E0,2.5847682E-1,3.2199764E-1,0E0,2.8215373E-1,8.4006715E-1,1.6882123E-1,2.9164582E-1,4.2553234E0,1.0062771E0,0E0,0E0,8.5427666E-1,0E0,5.4429E-1,3.77533E-2,0E0,0E0,0E0,0E0,0E0,0E0,0E0,0E0,0E0,0E0,0E0,0E0,0E0,0E0,0E0,0E0,0E0,0E0,0E0,0E0],"parents":[2147483647,0,0,1,1,2,2,3,3,4,4,5,5,6,6,7,7,8,8,9,9,10,10,11,11,13,13,14,14,15,15,17,17,18,18,19,19,20,20,21,21,22,22,25,25,27,27,28,28],"right_children":[2,4,6,8,10,12,14,16,18,20,22,24,-1,26,28,30,-1,32,34,36,38,40,42,-1,-1,44,-1,46,48,-1,-1,-1,-1,-1,-1,-1,-1,-1,-1,-1,-1,-1,-1,-1,-1,-1,-1,-1,-1],"split_conditions":[5.204761E-2,1.75E-2,9.916667E0,3E0,6E0,2.021E3,1.1E1,6.8589873E-3,1.4638889E1,2.023E3,2.021E3,1E1,1.02592744E-1,1.7583334E1,1.2E1,6.451001E-3,-7.997076E-2,1.0970984E-2,2.023E3,1.9E1,1.5638889E1,1.2361111E1,5.9722223E0,9.06144E-1,2.4241713E-1,6.126847E-2,-8.7057926E-2,2.017E3,2.016E3,-5.2632738E-2,7.366932E-2,-3.0639224E-2,-8.8345945E-2,1.7665178E-1,-6.9331124E-2,1.2967086E-2,-7.2593115E-2,2.6155196E-2,-1.3348627E-1,3.28779E-1,-1.4381689E-2,1.2662892E-1,3.729647E-1,4.0232712E-1,2.2852299E-1,1.2147837E-1,-8.4468774E-2,-9.202756E-2,-9.401429E-3],"split_indices":[6,6,4,2,2,0,2,6,5,0,0,2,0,4,2,6,0,6,0,4,4,4,5,0,0,6,0,0,0,0,0,0,0,0,0,0,0,0,0,0,0,0,0,0,0,0,0,0,0],"split_type":[0,0,0,0,0,0,0,0,0,0,0,0,0,0,0,0,0,0,0,0,0,0,0,0,0,0,0,0,0,0,0,0,0,0,0,0,0,0,0,0,0,0,0,0,0,0,0,0,0],"sum_hessian":[4.1E2,3.66E2,4.4E1,3.25E2,4.1E1,8E0,3.6E1,2.67E2,5.8E1,1.2E1,2.9E1,6E0,2E0,3.1E1,5E0,2.58E2,9E0,5.2E1,6E0,8E0,4E0,2E1,9E0,5E0,1E0,3E1,1E0,3E0,2E0,2.57E2,1E0,4.3E1,9E0,5E0,1E0,6E0,2E0,1E0,3E0,3E0,1.7E1,4E0,5E0,5E0,2.5E1,2E0,1E0,1E0,1E0],"tree_param":{"num_deleted":"0","num_feature":"28","num_nodes":"49","size_leaf_vector":"1"}},{"base_weights":[2.6003001E-2,6.141903E-1,-8.705558E-2,-1.7675534E-1,8.413778E-1,-1.0460112E-1,3.4652203E-1,-1.2530042E-1,-1.0738795E-1,1.1301287E0,-4.3723244E-2,1.4466085E-1,-1.1731759E-1,1.0007632E0,-1.2814118E-1,-5.0925393E-2,-1.1338552E-2,1.9265493E0,9.329207E-1,-5.053416E-1,1.2811281E-1,1.2023197E-2,3.400295E-1,-7.067907E-2,-1.2984315E-1,4.3298662E-1,1.2560347E-1,-6.18438E-2,9.658381E-2,-2.802854E-2,4.7553163E-2,1.877418E-1,6.965056E-1,2.328993E-1,4.6028534E-1,-4.0773906E-2,-1.7495404E-1,-1.7112285E-2,8.757433E-2,-4.5503378E-2,9.304142E-2,-4.1069448E-2,1.2691145E-2,-7.213799E-2,-3.8271625E-2,-3.886871E-2,8.233143E-2],"categories":[],"categories_nodes":[],"categories_segments":[],"categories_sizes":[],"default_left":[0,0,0,0,0,0,0,0,0,0,0,0,0,0,0,0,0,0,0,0,0,0,0,0,0,0,0,0,0,0,0,0,0,0,0,0,0,0,0,0,0,0,0,0,0,0,0],"id":4,"left_children":[1,3,5,7,9,11,13,15,-1,17,19,21,23,25,27,-1,29,31,33,35,37,39,-1,41,43,-1,-1,-1,45,-1,-1,-1,-1,-1,-1,-1,-1,-1,-1,-1,-1,-1,-1,-1,-1,-1,-1],"loss_changes":[2.8049807E1,1.236784E1,2.7292504E0,1.0432932E-1,1.3594822E1,1.0978496E0,4.4758577E0,6.899513E-2,0E0,4.4851E0,1.1752582E0,2.2158928E0,1.806798E-1,9.412513E-1,1.7767708E-1,0E0,8.452387E-2,2.1448727E0,2.0105782E0,3.5761476E-2,3.502645E-1,8.278688E-1,0E0,5.369865E-1,3.33848E-2,0E0,0E0,0E0,1.5622002E-1,0E0,0E0,0E0,0E0,0E0,0E0,0E0,0E0,0E0,0E0,0E0,0E0,0E0,0E0,0E0,0E0,0E0,0E0],"parents":[2147483647,0,0,1,1,2,2,3,3,4,4,5,5,6,6,7,7,9,9,10,10,11,11,12,12,13,13,14,14,16,16,17,17,18,18,19,19,20,20,21,21,23,23,24,24,28,28],"right_children":[2,4,6,8,10,12,14,16,-1,18,20,22,24,26,28,-1,30,32,34,36,38,40,-1,42,44,-1,-1,-1,46,-1,-1,-1,-1,-1,-1,-1,-1,-1,-1,-1,-1,-1,-1,-1,-1,-1,-1],"split_conditions":[1.4694445E1,2.4E1,6E0,2E0,1.1E1,1.5416667E1,1.7583334E1,2E0,-1.0738795E-1,9.916667E0,3.3E1,1.725E1,1.9666666E1,8.833333E0,2.5333334E1,-5.0925393E-2,1E0,1E0,1.2657143E1,2.8E1,1.2361111E1,3E1,3.400295E-1,3.5833333E0,2E1,4.3298662E-1,1.2560347E-1,-6.18438E-2,1E0,-2.802854E-2,4.7553163E-2,1.877418E-1,6.965056E-1,2.328993E-1,4.6028534E-1,-4.0773906E-2,-1.7495404E-1,-1.7112285E-2,8.757433E-2,-4.5503378E-2,9.304142E-2,-4.1069448E-2,1.2691145E-2,-7.213799E-2,-3.8271625E-2,-3.886871E-2,8.233143E-2],"split_indices":[4,3,7,2,2,4,4,3,0,4,3,5,4,5,4,0,2,7,5,3,4,3,0,5,4,0,0,0,2,0,0,0,0,0,0,0,0,0,0,0,0,0,0,0,0,0,0],"split_type":[0,0,0,0,0,0,0,0,0,0,0,0,0,0,0,0,0,0,0,0,0,0,0,0,0,0,0,0,0,0,0,0,0,0,0,0,0,0,0,0,0,0,0,0,0,0,0],"sum_hessian":[4.2E2,6.7E1,3.53E2,1.5E1,5.2E1,3.4E2,1.3E1,1.3E1,2E0,3.9E1,1.3E1,1.6E1,3.24E2,5E0,8E0,9E0,4E0,6E0,3.3E1,3E0,1E1,1.5E1,1E0,7E1,2.54E2,2E0,3E0,6E0,2E0,3E0,1E0,2E0,4E0,2.8E1,5E0,1E0,2E0,5E0,5E0,1E1,5E0,4.4E1,2.6E1,3E0,2.51E2,1E0,1E0],"tree_param":{"num_deleted":"0","num_feature":"28","num_nodes":"47","size_leaf_vector":"1"}},{"base_weights":[1.6758641E-2,-5.2347545E-2,9.574547E-1,-8.125766E-2,6.6187926E-2,1.0797813E0,-1.3879089E-1,-7.6451354E-2,-2.4072891E-1,7.871049E-1,3.6859784E-2,1.2445242E0,4.3129793E-1,-7.92989E-2,1.1709539E-1,6.615733E-2,2.880399E-1,1.445695E-1,-8.0579355E-2,1.3484155E0,1.717046E-1,5.548048E-1,2.450614E-2,-2.211122E-2,-7.2435625E-2,9.70234E-2,-3.8475703E-2,2.35918E-2,2.1548435E-1,6.1692785E-2,-4.9988482E-2,4.2173192E-1,4.7396872E-2,8.947027E-2,-1.2203193E-2,4.0267613E-2,1.87918E-1],"categories":[],"categories_nodes":[],"categories_segments":[],"categories_sizes":[],"default_left":[0,0,0,0,0,0,0,0,0,0,0,0,0,0,0,0,0,0,0,0,0,0,0,0,0,0,0,0,0,0,0,0,0,0,0,0,0],"id":5,"left_children":[1,3,5,7,9,11,-1,13,-1,15,17,19,21,23,25,-1,-1,27,29,31,33,35,-1,-1,-1,-1,-1,-1,-1,-1,-1,-1,-1,-1,-1,-1,-1],"loss_changes":[2.7548468E1,1.3589938E0,5.5372753E0,1.0408981E0,1.6201538E0,2.3477345E0,0E0,1.8399489E-1,0E0,8.237004E-2,9.7299886E-1,2.1090584E0,2.56935E-1,2.6616418E-1,2.9457402E-1,0E0,0E0,1.456511E0,9.455421E-1,1.075222E0,9.274916E-2,6.646538E-2,0E0,0E0,0E0,0E0,0E0,0E0,0E0,0E0,0E0,0E0,0E0,0E0,0E0,0E0,0E0],"parents":[2147483647,0,0,1,1,2,2,3,3,4,4,5,5,7,7,9,9,10,10,11,11,12,12,13,13,14,14,17,17,18,18,19,19,20,20,21,21],"right_children":[2,4,6,8,10,12,-1,14,-1,16,18,20,22,24,26,-1,-1,28,30,32,34,36,-1,-1,-1,-1,-1,-1,-1,-1,-1,-1,-1,-1,-1,-1,-1],"split_conditions":[8.267426E-2,6E0,1E0,1E1,1E0,9E0,-1.3879089E-1,5.018499E-2,-2.4072891E-1,9E0,1.5166667E1,6E0,9E0,2.3501642E-2,6.282927E-2,6.615733E-2,2.880399E-1,1.5E1,2E0,1.7E1,2.024E3,2.015E3,2.450614E-2,-2.211122E-2,-7.2435625E-2,9.70234E-2,-3.8475703E-2,2.35918E-2,2.1548435E-1,6.1692785E-2,-4.9988482E-2,4.2173192E-1,4.7396872E-2,8.947027E-2,-1.2203193E-2,4.0267613E-2,1.87918E-1],"split_indices":[6,2,15,1,7,2,0,6,0,1,4,7,1,6,6,0,0,4,1,1,0,0,0,0,0,0,0,0,0,0,0,0,0,0,0,0,0],"split_type":[0,0,0,0,0,0,0,0,0,0,0,0,0,0,0,0,0,0,0,0,0,0,0,0,0,0,0,0,0,0,0,0,0,0,0,0,0],"sum_hessian":[4.22E2,3.94E2,2.8E1,3.17E2,7.7E1,2.6E1,2E0,3.16E2,1E0,2E0,7.5E1,2E1,6E0,3.12E2,4E0,1E0,1E0,3.9E1,3.6E1,1.8E1,2E0,4E0,2E0,3.03E2,9E0,2E0,2E0,3.6E1,3E0,8E0,2.8E1,1.7E1,1E0,1E0,1E0,1E0,3E0],"tree_param":{"num_deleted":"0","num_feature":"28","num_nodes":"37","size_leaf_vector":"1"}},{"base_weights":[1.05931945E-2,-3.3431858E-2,7.182214E-1,-6.2564924E-2,8.622361E-2,1.1814991E0,4.9815664E-1,-6.024061E-2,-8.4334224E-2,3.8651675E-2,4.8575363E-1,4.0009558E-1,4.0287334E-2,9.8169106E-1,2.3666717E-1,-6.1669756E-2,5.6990355E-2,8.2147375E-2,-2.2618769E-1,9.122757E-1,-1.6883732E-1,8.4251076E-2,3.7857273E-1,1.834761E-2,2.1698979E-1,-9.255434E-3,-2.1131402E-2,9.476335E-2,5.1401923E-3,-9.305654E-3,-2.0137262E-1,3.4521887E-1,1.1091897E-1,-1.6487125E-1,4.237923E-2,1.20173454E-1,-3.8184695E-2],"categories":[],"categories_nodes":[],"categories_segments":[],"categories_sizes":[],"default_left":[0,0,0,0,0,0,0,0,0,0,0,0,0,0,0,0,0,0,0,0,0,0,0,0,0,0,0,0,0,0,0,0,0,0,0,0,0],"id":6,"left_children":[1,3,5,7,9,11,13,15,-1,17,19,-1,-1,21,23,25,-1,27,29,31,33,-1,-1,35,-1,-1,-1,-1,-1,-1,-1,-1,-1,-1,-1,-1,-1],"loss_changes":[1.27657385E1,1.3509641E0,1.8582554E0,1.4104605E-1,1.4257126E0,9.362507E-1,2.043571E0,1.22208595E-1,0E0,8.1341755E-1,2.3876061E0,0E0,0E0,8.239603E-1,1.367866E0,8.105552E-2,0E0,9.0632427E-1,8.477862E-1,2.2140169E-1,5.498986E-1,0E0,0E0,6.076286E-1,0E0,0E0,0E0,0E0,0E0,0E0,0E0,0E0,0E0,0E0,0E0,0E0,0E0],"parents":[2147483647,0,0,1,1,2,2,3,3,4,4,5,5,6,6,7,7,9,9,10,10,13,13,14,14,15,15,17,17,18,18,19,19,20,20,23,23],"right_children":[2,4,6,8,10,12,14,16,-1,18,20,-1,-1,22,24,26,-1,28,30,32,34,-1,-1,36,-1,-1,-1,-1,-1,-1,-1,-1,-1,-1,-1,-1,-1],"split_conditions":[8.1827626E-2,1.0869565E-2,9.916667E0,1.1E1,6E0,1.7E1,9.402174E-2,7E0,-8.4334224E-2,6.6118315E-2,8E0,4.0009558E-1,4.0287334E-2,7E0,1.3152143E-1,2.05E1,5.6990355E-2,1.2805555E1,1.2E1,8.833333E0,6E0,8.4251076E-2,3.7857273E-1,4E0,2.1698979E-1,-9.255434E-3,-2.1131402E-2,9.476335E-2,5.1401923E-3,-9.305654E-3,-2.0137262E-1,3.4521887E-1,1.1091897E-1,-1.6487125E-1,4.237923E-2,1.20173454E-1,-3.8184695E-2],"split_indices":[6,6,4,2,7,1,6,1,0,6,2,0,0,1,6,4,0,4,5,5,1,0,0,2,0,0,0,0,0,0,0,0,0,0,0,0,0],"split_type":[0,0,0,0,0,0,0,0,0,0,0,0,0,0,0,0,0,0,0,0,0,0,0,0,0,0,0,0,0,0,0,0,0,0,0,0,0],"sum_hessian":[4.08E2,3.85E2,2.3E1,3.1E2,7.5E1,6E0,1.7E1,3.08E2,2E0,6.8E1,7E0,5E0,1E0,5E0,1.2E1,3.07E2,1E0,5.9E1,9E0,4E0,3E0,2E0,3E0,9E0,3E0,6.9E1,2.38E2,1.2E1,4.7E1,7E0,2E0,2E0,2E0,1E0,2E0,2E0,7E0],"tree_param":{"num_deleted":"0","num_feature":"28","num_nodes":"37","size_leaf_vector":"1"}},{"base_weights":[6.3551166E-3,-3.5192072E-2,6.077846E-1,-4.5831315E-2,1.8782285E-1,8.986283E-1,4.380279E-1,-4.005964E-2,-2.1660526E-1,4.611165E-1,-7.6923706E-2,2.94726E-1,3.424423E-2,6.694334E-1,-5.4300684E-2,-3.8096715E-2,-1.1259581E-1,-4.7498214E-1,-2.8044045E-2,5.4858273E-1,-3.5792008E-2,-2.7107355E-1,8.462085E-2,8.480124E-1,2.1410462E-1,9.613877E-2,-2.6829848E-1,-1.2563085E-2,1.9898525E-1,-1.586345E-1,-3.8967617E-2,1.9804228E-2,-6.204369E-2,1.1652169E-2,1.8475632E-1,-1.6636978E-1,2.4056144E-2,2.8510156E-1,9.79742E-2,7.052822E-2,1.9522049E-2,-9.21442E-2,-1.6935468E-2],"categories":[],"categories_nodes":[],"categories_segments":[],"categories_sizes":[],"default_left":[0,0,0,0,0,0,0,0,0,0,0,0,0,0,0,0,0,0,0,0,0,0,0,0,0,0,0,0,0,0,0,0,0,0,0,0,0,0,0,0,0,0,0],"id":7,"left_children":[1,3,5,7,9,11,13,15,17,19,21,-1,-1,23,25,27,-1,29,31,33,-1,35,-1,37,39,-1,41,-1,-1,-1,-1,-1,-1,-1,-1,-1,-1,-1,-1,-1,-1,-1,-1],"loss_changes":[1.0441262E1,9.363377E-1,9.3943787E-1,3.599568E-1,1.3378346E0,4.7945595E-1,2.200974E0,2.2458816E-1,5.7131785E-1,5.223564E-1,7.734463E-1,0E0,0E0,8.7549496E-1,6.4736915E-1,9.8757756E-1,0E0,2.4143815E-2,1.4816938E-1,2.5040936E-1,0E0,7.4152696E-1,0E0,1.6984272E-1,3.4198165E-4,0E0,2.3811072E-2,0E0,0E0,0E0,0E0,0E0,0E0,0E0,0E0,0E0,0E0,0E0,0E0,0E0,0E0,0E0,0E0],"parents":[2147483647,0,0,1,1,2,2,3,3,4,4,5,5,6,6,7,7,8,8,9,9,10,10,13,13,14,14,15,15,17,17,18,18,19,19,21,21,23,23,24,24,26,26],"right_children":[2,4,6,8,10,12,14,16,18,20,22,-1,-1,24,26,28,-1,30,32,34,-1,36,-1,38,40,-1,42,-1,-1,-1,-1,-1,-1,-1,-1,-1,-1,-1,-1,-1,-1,-1,-1],"split_conditions":[8.1827626E-2,5.2171435E-2,9.916667E0,1E1,6.282927E-2,1.7E1,1.1E1,5.204761E-2,2.9E1,1.1E1,5E0,2.94726E-1,3.424423E-2,9E0,4E0,1.3E1,-1.1259581E-1,1.1555555E1,7E0,1E0,-3.5792008E-2,1.3E1,8.462085E-2,3.5E1,8E0,9.613877E-2,7E0,-1.2563085E-2,1.9898525E-1,-1.586345E-1,-3.8967617E-2,1.9804228E-2,-6.204369E-2,1.1652169E-2,1.8475632E-1,-1.6636978E-1,2.4056144E-2,2.8510156E-1,9.79742E-2,7.052822E-2,1.9522049E-2,-9.21442E-2,-1.6935468E-2],"split_indices":[6,6,4,2,6,1,1,6,3,2,7,0,0,2,2,1,0,5,1,1,0,1,0,3,1,0,2,0,0,0,0,0,0,0,0,0,0,0,0,0,0,0,0],"split_type":[0,0,0,0,0,0,0,0,0,0,0,0,0,0,0,0,0,0,0,0,0,0,0,0,0,0,0,0,0,0,0,0,0,0,0,0,0,0,0,0,0,0,0],"sum_hessian":[4.16E2,3.9E2,2.6E1,3.73E2,1.7E1,8E0,1.8E1,3.62E2,1.1E1,8E0,9E0,7E0,1E0,1.2E1,6E0,3.61E2,1E0,4E0,7E0,7E0,1E0,6E0,3E0,8E0,4E0,2E0,4E0,3.6E2,1E0,3E0,1E0,5E0,2E0,1E0,6E0,3E0,3E0,6E0,2E0,3E0,1E0,3E0,1E0],"tree_param":{"num_deleted":"0","num_feature":"28","num_nodes":"43","size_leaf_vector":"1"}},{"base_weights":[1.8534726E-2,-1.9731615E-2,3.2101437E-1,-1.1571901E-2,-3.475543E-1,2.4919717E-1,6.3997364E-1,-1.7739737E-2,3.0552205E-1,1.01617E-1,-7.2721475E-1,6.230906E-1,1.6488978E-1,7.036769E-1,2.9107602E-2,-9.219593E-3,-1.6927181E-1,-9.5239006E-2,6.182089E-1,-2.691017E-1,4.3846336E-1,-2.7191913E-1,-1.5728296E-3,7.4523166E-2,2.1698417E-1,-1.9747274E-2,2.951231E-1,7.837935E-2,2.4851671E-1,-6.4597605E-3,1.19778216E-1,6.904116E-2,-7.756338E-2,5.6158308E-2,2.5294614E-1,-2.5389327E-2,-9.570644E-2,2.8171064E-2,1.6913746E-1,2.2662282E-2,-1.2782414E-1,2.1282262E-1,2.0070026E-2],"categories":[],"categories_nodes":[],"categories_segments":[],"categories_sizes":[],"default_left":[0,0,0,0,0,0,0,0,0,0,0,0,0,0,0,0,0,0,0,0,0,0,0,0,0,0,0,0,0,0,0,0,0,0,0,0,0,0,0,0,0,0,0],"id":8,"left_children":[1,3,5,7,9,11,13,15,17,19,21,23,25,27,-1,29,31,-1,33,35,37,-1,-1,-1,-1,39,41,-1,-1,-1,-1,-1,-1,-1,-1,-1,-1,-1,-1,-1,-1,-1,-1],"loss_changes":[4.844596E0,9.910556E-1,9.171381E-1,7.1732527E-1,1.6086904E0,1.158138E0,2.08426E-1,4.6064436E-1,1.559854E0,7.423675E-1,6.42071E-1,8.310366E-2,8.233884E-1,1.6979098E-1,0E0,1.718659E0,7.369714E-1,0E0,3.26939E-1,6.2705576E-4,7.660711E-2,0E0,0E0,0E0,0E0,6.129679E-1,1.8435307E0,0E0,0E0,0E0,0E0,0E0,0E0,0E0,0E0,0E0,0E0,0E0,0E0,0E0,0E0,0E0,0E0],"parents":[2147483647,0,0,1,1,2,2,3,3,4,4,5,5,6,6,7,7,8,8,9,9,10,10,11,11,12,12,13,13,15,15,16,16,18,18,19,19,20,20,25,25,26,26],"right_children":[2,4,6,8,10,12,14,16,18,20,22,24,26,28,-1,30,32,-1,34,36,38,-1,-1,-1,-1,40,42,-1,-1,-1,-1,-1,-1,-1,-1,-1,-1,-1,-1,-1,-1,-1,-1],"split_conditions":[5.2171435E-2,1E1,1.4331707E-1,4.2487685E-2,7E0,6.126847E-2,1.6E1,2.2608696E-2,5E0,3E1,1.6388888E0,6E0,8.267426E-2,1E1,2.9107602E-2,1.681188E-2,5E0,-9.5239006E-2,8.027778E0,1.1E1,1.3E1,-2.7191913E-1,-1.5728296E-3,7.4523166E-2,2.1698417E-1,1.4166667E1,9.402174E-2,7.837935E-2,2.4851671E-1,-6.4597605E-3,1.19778216E-1,6.904116E-2,-7.756338E-2,5.6158308E-2,2.5294614E-1,-2.5389327E-2,-9.570644E-2,2.8171064E-2,1.6913746E-1,2.2662282E-2,-1.2782414E-1,2.1282262E-1,2.0070026E-2],"split_indices":[6,1,6,6,2,6,1,6,2,3,5,2,6,1,0,6,2,0,5,1,1,0,0,0,0,5,6,0,0,0,0,0,0,0,0,0,0,0,0,0,0,0,0],"split_type":[0,0,0,0,0,0,0,0,0,0,0,0,0,0,0,0,0,0,0,0,0,0,0,0,0,0,0,0,0,0,0,0,0,0,0,0,0,0,0,0,0,0,0],"sum_hessian":[4.17E2,3.71E2,4.6E1,3.63E2,8E0,3.9E1,7E0,3.57E2,6E0,4E0,4E0,6E0,3.3E1,6E0,1E0,3.39E2,1.8E1,2E0,4E0,2E0,2E0,3E0,1E0,2E0,4E0,1.4E1,1.9E1,2E0,4E0,3.3E2,9E0,3E0,1.5E1,2E0,2E0,1E0,1E0,1E0,1E0,1.2E1,2E0,6E0,1.3E1],"tree_param":{"num_deleted":"0","num_feature":"28","num_nodes":"43","size_leaf_vector":"1"}},{"base_weights":[2.109614E-2,-5.4365452E-3,1.908129E-1,-1.9950977E-2,6.722622E-2,5.712313E-1,9.5695175E-2,-2.657691E-2,7.9441875E-2,2.0431489E-1,-1.182959E-2,6.118601E-1,2.4741465E-2,2.561502E-1,-1.9308987E-1,-1.07084505E-1,-1.8672775E-2,-5.6020617E-2,1.6313004E-1,4.6127862E-1,-9.458326E-2,-4.9361516E-2,7.67307E-2,6.64281E-1,8.0435306E-2,3.4068587E-1,-1.3877356E-1,5.321378E-2,-2.5431105E-1,-1.4709485E-2,-7.480765E-2,1.787128E-2,-7.5426716E-3,6.5392844E-2,-5.510467E-2,7.363462E-2,-1.8860847E-2,1.3118233E-2,1.993765E-1,-5.8881603E-3,-1.2662159E-1,-3.0698482E-2,1.2539632E-2,1.4863336E-1,-1.6966954E-2,5.7211235E-2,2.1140744E-1,-8.633163E-2,1.13658644E-1,-9.821962E-2,4.769535E-2,-3.8953956E-2,-1.13402024E-1],"categories":[],"categories_nodes":[],"categories_segments":[],"categories_sizes":[],"default_left":[0,0,0,0,0,0,0,0,0,0,0,0,0,0,0,0,0,0,0,0,0,0,0,0,0,0,0,0,0,0,0,0,0,0,0,0,0,0,0,0,0,0,0,0,0,0,0,0,0,0,0,0,0],"id":9,"left_children":[1,3,5,7,9,11,13,15,17,19,21,23,-1,25,27,29,31,33,35,37,39,41,43,45,-1,47,49,-1,51,-1,-1,-1,-1,-1,-1,-1,-1,-1,-1,-1,-1,-1,-1,-1,-1,-1,-1,-1,-1,-1,-1,-1,-1],"loss_changes":[1.8652965E0,3.7996376E-1,1.9716699E0,1.9968244E-1,6.526763E-1,1.67974E-1,2.1809626E0,1.774491E-1,2.2453423E-1,1.7333608E0,1.3341723E-1,2.0873547E-3,0E0,1.0488325E0,4.3067884E-1,1.9425946E-1,1.3209595E-1,3.1986925E-1,2.3867905E-1,9.8964524E-1,2.617358E-1,1.394742E-1,6.97731E-1,1.8711805E-2,0E0,7.0883036E-1,3.8903928E-1,0E0,1.8185306E-1,0E0,0E0,0E0,0E0,0E0,0E0,0E0,0E0,0E0,0E0,0E0,0E0,0E0,0E0,0E0,0E0,0E0,0E0,0E0,0E0,0E0,0E0,0E0,0E0],"parents":[2147483647,0,0,1,1,2,2,3,3,4,4,5,5,6,6,7,7,8,8,9,9,10,10,11,11,13,13,14,14,15,15,16,16,17,17,18,18,19,19,20,20,21,21,22,22,23,23,25,25,26,26,28,28],"right_children":[2,4,6,8,10,12,14,16,18,20,22,24,-1,26,28,30,32,34,36,38,40,42,44,46,-1,48,50,-1,52,-1,-1,-1,-1,-1,-1,-1,-1,-1,-1,-1,-1,-1,-1,-1,-1,-1,-1,-1,-1,-1,-1,-1,-1],"split_conditions":[7E0,4E0,1.0861111E1,4E0,1.875E1,1.7E1,1E1,1.5888889E1,2.9E1,5E0,2.5333334E1,9.916667E0,2.4741465E-2,1.5805555E1,2.6E1,2E0,1.7875E1,5E0,1.5888889E1,2.4E1,6E0,2E0,2.625E1,1E0,8.0435306E-2,2.4E1,1.7472221E1,5.321378E-2,4E0,-1.4709485E-2,-7.480765E-2,1.787128E-2,-7.5426716E-3,6.5392844E-2,-5.510467E-2,7.363462E-2,-1.8860847E-2,1.3118233E-2,1.993765E-1,-5.8881603E-3,-1.2662159E-1,-3.0698482E-2,1.2539632E-2,1.4863336E-1,-1.6966954E-2,5.7211235E-2,2.1140744E-1,-8.633163E-2,1.13658644E-1,-9.821962E-2,4.769535E-2,-3.8953956E-2,-1.13402024E-1],"split_indices":[1,7,4,1,4,1,1,4,3,1,4,4,0,4,3,7,4,1,4,3,7,1,4,7,0,3,4,0,7,0,0,0,0,0,0,0,0,0,0,0,0,0,0,0,0,0,0,0,0,0,0,0,0],"split_type":[0,0,0,0,0,0,0,0,0,0,0,0,0,0,0,0,0,0,0,0,0,0,0,0,0,0,0,0,0,0,0,0,0,0,0,0,0,0,0,0,0,0,0,0,0,0,0,0,0,0,0,0,0],"sum_hessian":[4.13E2,3.58E2,5.5E1,2.99E2,5.9E1,1E1,4.5E1,2.81E2,1.8E1,2.1E1,3.8E1,9E0,1E0,2.9E1,1.6E1,2.4E1,2.57E2,7E0,1.1E1,1.1E1,1E1,2.7E1,1.1E1,7E0,2E0,2.4E1,5E0,2E0,1.4E1,1.8E1,6E0,1.9E1,2.38E2,2E0,5E0,8E0,3E0,4E0,7E0,9E0,1E0,1.7E1,1E1,2E0,9E0,1E0,6E0,1E0,2.3E1,3E0,2E0,8E0,6E0],"tree_param":{"num_deleted":"0","num_feature":"28","num_nodes":"53","size_leaf_vector":"1"}},{"base_weights":[6.636028E-3,-7.985178E-3,2.0656648E-1,-1.1071044E-3,-2.1106774E-1,4.457186E-1,7.66621E-2,1.3179956E-1,-1.0702844E-2,-1.0884255E-1,-7.08787E-2,4.7966492E-1,2.1030255E-2,1.4496791E-1,-1.07618056E-1,-2.3035854E-2,5.5535793E-1,-4.8728636E-3,-3.5385954E-1,5.1060174E-2,-2.0558262E-1,5.4568255E-1,4.9720626E-2,9.140085E-2,1.5834121E-1,1.92231E-2,-1.1625196E-1,-3.2013196E-2,2.5245827E-1,-4.4566295E-3,7.766646E-2,3.1246217E-2,-1.3988793E-1,-2.8571134E-2,3.3433132E-2,-8.001963E-2,-2.888663E-2,1.7456923E-1,4.9259022E-2,3.6792066E-2,-2.8578877E-2],"categories":[],"categories_nodes":[],"categories_segments":[],"categories_sizes":[],"default_left":[0,0,0,0,0,0,0,0,0,0,0,0,0,0,0,0,0,0,0,0,0,0,0,0,0,0,0,0,0,0,0,0,0,0,0,0,0,0,0,0,0],"id":10,"left_children":[1,3,5,7,9,11,13,15,17,-1,19,21,-1,23,-1,25,27,29,31,33,35,37,-1,39,-1,-1,-1,-1,-1,-1,-1,-1,-1,-1,-1,-1,-1,-1,-1,-1,-1],"loss_changes":[1.24402E0,5.5430263E-1,8.667706E-1,4.9241564E-1,2.5082576E-1,9.3883514E-2,6.4679575E-1,1.717921E0,7.1849054E-1,0E0,1.4190222E-1,9.608507E-2,0E0,3.2089165E-1,0E0,6.598318E-1,1.4160471E0,9.385653E-1,3.575428E-1,5.4783367E-2,1.049757E-3,1.162529E-3,0E0,1.1081442E-1,0E0,0E0,0E0,0E0,0E0,0E0,0E0,0E0,0E0,0E0,0E0,0E0,0E0,0E0,0E0,0E0,0E0],"parents":[2147483647,0,0,1,1,2,2,3,3,4,4,5,5,6,6,7,7,8,8,10,10,11,11,13,13,15,15,16,16,17,17,18,18,19,19,20,20,21,21,23,23],"right_children":[2,4,6,8,10,12,14,16,18,-1,20,22,-1,24,-1,26,28,30,32,34,36,38,-1,40,-1,-1,-1,-1,-1,-1,-1,-1,-1,-1,-1,-1,-1,-1,-1,-1,-1],"split_conditions":[8.267426E-2,1.1E1,9.916667E0,1.3068966E1,3.3E1,1.7E1,1E0,8E0,1.1E1,-1.0884255E-1,7E0,8E0,2.1030255E-2,1E0,-1.07618056E-1,7E0,1.1916667E1,4.2487685E-2,2.6E1,4E0,8E0,1.6E1,4.9720626E-2,1E1,1.5834121E-1,1.92231E-2,-1.1625196E-1,-3.2013196E-2,2.5245827E-1,-4.4566295E-3,7.766646E-2,3.1246217E-2,-1.3988793E-1,-2.8571134E-2,3.3433132E-2,-8.001963E-2,-2.888663E-2,1.7456923E-1,4.9259022E-2,3.6792066E-2,-2.8578877E-2],"split_indices":[6,2,4,4,3,1,15,2,1,0,1,2,0,24,0,2,4,6,3,1,1,1,0,2,0,0,0,0,0,0,0,0,0,0,0,0,0,0,0,0,0],"split_type":[0,0,0,0,0,0,0,0,0,0,0,0,0,0,0,0,0,0,0,0,0,0,0,0,0,0,0,0,0,0,0,0,0,0,0,0,0,0,0,0,0],"sum_hessian":[4.24E2,3.96E2,2.8E1,3.84E2,1.2E1,9E0,1.9E1,2.5E1,3.59E2,5E0,7E0,8E0,1E0,1.7E1,2E0,1.9E1,6E0,3.54E2,5E0,4E0,3E0,6E0,2E0,1.6E1,1E0,1.6E1,3E0,2E0,4E0,3.42E2,1.2E1,1E0,4E0,1E0,3E0,1E0,2E0,5E0,1E0,1.4E1,2E0],"tree_param":{"num_deleted":"0","num_feature":"28","num_nodes":"41","size_leaf_vector":"1"}},{"base_weights":[-2.688217E-3,-1.5042692E-2,1.8737385E-1,-5.6099845E-3,-1.2971924E-1,2.461209E-1,-5.036749E-2,-1.4817691E-2,1.6095194E-1,1.288784E-1,-2.0610398E-1,3.282689E-1,1.2293123E-1,-7.990042E-3,-2.536563E-1,-9.223912E-3,3.7482476E-1,4.2687196E-1,-2.0133476E-1,-2.6405206E-1,1.206754E-1,3.7564266E-1,-2.892641E-2,-8.866819E-2,1.8691461E-1,-4.3970575E-3,3.8163695E-2,-4.110076E-2,-1.0956687E-1,-4.902024E-2,1.369144E-1,2.2525232E-1,-2.859664E-4,5.1164467E-2,1.7937648E-1,-7.669839E-2,-5.753267E-3,-9.788842E-2,-7.3541E-3,-3.070879E-3,5.0317418E-2,1.2026343E-1,1.8493295E-2,-4.6276975E-2,6.3762907E-3,3.2004137E-2,1.12283066E-1],"categories":[],"categories_nodes":[],"categories_segments":[],"categories_sizes":[],"default_left":[0,0,0,0,0,0,0,0,0,0,0,0,0,0,0,0,0,0,0,0,0,0,0,0,0,0,0,0,0,0,0,0,0,0,0,0,0,0,0,0,0,0,0,0,0,0,0],"id":11,"left_children":[1,3,5,7,9,11,-1,13,15,17,19,21,23,25,27,29,31,33,35,37,39,41,-1,43,45,-1,-1,-1,-1,-1,-1,-1,-1,-1,-1,-1,-1,-1,-1,-1,-1,-1,-1,-1,-1,-1,-1],"loss_changes":[9.232806E-1,3.9842343E-1,5.422208E-1,5.2689445E-1,5.7964396E-1,1.7216098E-1,0E0,5.279529E-1,6.585852E-1,7.74754E-1,4.4846177E-1,2.7765024E-1,1.5196183E-1,2.875986E-1,6.709546E-2,8.642142E-1,1.131105E0,7.340181E-2,3.4680933E-2,2.752819E-1,2.6354086E-2,6.2450647E-2,0E0,2.4907535E-2,8.033484E-2,0E0,0E0,0E0,0E0,0E0,0E0,0E0,0E0,0E0,0E0,0E0,0E0,0E0,0E0,0E0,0E0,0E0,0E0,0E0,0E0,0E0,0E0],"parents":[2147483647,0,0,1,1,2,2,3,3,4,4,5,5,7,7,8,8,9,9,10,10,11,11,12,12,13,13,14,14,15,15,16,16,17,17,18,18,19,19,20,20,21,21,23,23,24,24],"right_children":[2,4,6,8,10,12,-1,14,16,18,20,22,24,26,28,30,32,34,36,38,40,42,-1,44,46,-1,-1,-1,-1,-1,-1,-1,-1,-1,-1,-1,-1,-1,-1,-1,-1,-1,-1,-1,-1,-1,-1],"split_conditions":[7.2972685E-2,9E0,1E1,8E0,1.2805555E1,1.275E1,-5.036749E-2,7E0,4E0,1.4E1,2.023E3,2.023E3,1.2914286E1,6E0,4E0,4.438168E-2,2.9E1,4E0,1.6E1,1.711111E1,2.8E1,9E0,-2.892641E-2,2.02E3,2.024E3,-4.3970575E-3,3.8163695E-2,-4.110076E-2,-1.0956687E-1,-4.902024E-2,1.369144E-1,2.2525232E-1,-2.859664E-4,5.1164467E-2,1.7937648E-1,-7.669839E-2,-5.753267E-3,-9.788842E-2,-7.3541E-3,-3.070879E-3,5.0317418E-2,1.2026343E-1,1.8493295E-2,-4.6276975E-2,6.3762907E-3,3.2004137E-2,1.12283066E-1],"split_indices":[6,2,2,2,4,4,0,2,7,2,0,0,4,2,7,6,3,7,2,4,3,2,0,0,0,0,0,0,0,0,0,0,0,0,0,0,0,0,0,0,0,0,0,0,0,0,0],"split_type":[0,0,0,0,0,0,0,0,0,0,0,0,0,0,0,0,0,0,0,0,0,0,0,0,0,0,0,0,0,0,0,0,0,0,0,0,0,0,0,0,0,0,0,0,0,0,0],"sum_hessian":[3.91E2,3.68E2,2.3E1,3.41E2,2.7E1,2E1,3E0,3.24E2,1.7E1,6E0,2.1E1,1.1E1,9E0,3.16E2,8E0,1E1,7E0,3E0,3E0,1.8E1,3E0,1E1,1E0,2E0,7E0,3.02E2,1.4E1,5E0,3E0,8E0,2E0,3E0,4E0,2E0,1E0,2E0,1E0,1.4E1,4E0,1E0,2E0,9E0,1E0,1E0,1E0,6E0,1E0],"tree_param":{"num_deleted":"0","num_feature":"28","num_nodes":"47","size_leaf_vector":"1"}},{"base_weights":[9.958861E-3,-3.8093214E-5,1.6391347E-1,3.3612153E-3,-1.4280482E-1,3.4963402E-1,8.686309E-2,-4.3601436E-3,1.1743294E-1,-2.267576E-1,1.0068663E-1,4.3077867E-2,4.6364093E-1,-5.0014656E-2,2.8132182E-1,-7.1660844E-3,8.404073E-2,-3.179502E-1,1.714655E-1,-2.7138287E-1,6.1491076E-3,3.8902476E-2,6.4065102E-3,2.09404E-2,-1.5553595E-3,2.3008956E-2,1.6236088E-1,9.752607E-2,-1.6933319E-1,3.2166666E-1,-1.6379356E-4,-4.8547727E-4,-5.264135E-2,1.5508321E-1,-2.0879464E-2,1.1982582E-2,-1.5506017E-1,1.4047635E-1,2.9987736E-2,-1.2040508E-2,-9.2881635E-2,4.7055997E-2,-4.2256834E-3,1.5719319E-2,-6.450639E-2,1.1304119E-1,3.676467E-2],"categories":[],"categories_nodes":[],"categories_segments":[],"categories_sizes":[],"default_left":[0,0,0,0,0,0,0,0,0,0,0,0,0,0,0,0,0,0,0,0,0,0,0,0,0,0,0,0,0,0,0,0,0,0,0,0,0,0,0,0,0,0,0,0,0,0,0],"id":12,"left_children":[1,3,5,7,9,11,13,15,17,19,21,23,25,27,29,31,33,35,37,39,-1,-1,-1,-1,-1,-1,-1,41,43,45,-1,-1,-1,-1,-1,-1,-1,-1,-1,-1,-1,-1,-1,-1,-1,-1,-1],"loss_changes":[6.3102794E-1,1.8780893E-1,3.273757E-1,3.3345017E-1,2.0680755E-1,2.2467393E-1,5.197946E-1,8.865914E-2,6.191143E-1,8.279917E-2,4.1298475E-3,4.2311023E-3,1.08552575E-1,2.2776651E-1,9.115088E-2,3.21852E-1,7.675972E-1,2.3421714E-1,4.2008442E-1,4.0607274E-2,0E0,0E0,0E0,0E0,0E0,0E0,0E0,4.1939054E-2,8.217989E-2,3.0674815E-2,0E0,0E0,0E0,0E0,0E0,0E0,0E0,0E0,0E0,0E0,0E0,0E0,0E0,0E0,0E0,0E0,0E0],"parents":[2147483647,0,0,1,1,2,2,3,3,4,4,5,5,6,6,7,7,8,8,9,9,10,10,11,11,12,12,13,13,14,14,15,15,16,16,17,17,18,18,19,19,27,27,28,28,29,29],"right_children":[2,4,6,8,10,12,14,16,18,20,22,24,26,28,30,32,34,36,38,40,-1,-1,-1,-1,-1,-1,-1,42,44,46,-1,-1,-1,-1,-1,-1,-1,-1,-1,-1,-1,-1,-1,-1,-1,-1,-1],"split_conditions":[8.267426E-2,6.7067385E-2,9.402174E-2,8E0,5E0,7E0,1.3726619E-1,3.263547E-2,2.015E3,2.023E3,2.018E3,1E1,2.7E1,3E1,1.6E1,2.3501642E-2,4.2795565E-2,9E0,2.016E3,2.016E3,6.1491076E-3,3.8902476E-2,6.4065102E-3,2.09404E-2,-1.5553595E-3,2.3008956E-2,1.6236088E-1,8E0,9E0,8E0,-1.6379356E-4,-4.8547727E-4,-5.264135E-2,1.5508321E-1,-2.0879464E-2,1.1982582E-2,-1.5506017E-1,1.4047635E-1,2.9987736E-2,-1.2040508E-2,-9.2881635E-2,4.7055997E-2,-4.2256834E-3,1.5719319E-2,-6.450639E-2,1.1304119E-1,3.676467E-2],"split_indices":[6,6,6,1,7,1,6,6,0,0,0,2,3,3,1,6,6,1,0,0,0,0,0,0,0,0,0,2,1,2,0,0,0,0,0,0,0,0,0,0,0,0,0,0,0,0,0],"split_type":[0,0,0,0,0,0,0,0,0,0,0,0,0,0,0,0,0,0,0,0,0,0,0,0,0,0,0,0,0,0,0,0,0,0,0,0,0,0,0,0,0,0,0,0,0,0,0],"sum_hessian":[4.09E2,3.85E2,2.4E1,3.77E2,8E0,6E0,1.8E1,3.54E2,2.3E1,6E0,2E0,2E0,4E0,1.1E1,7E0,3.44E2,1E1,2E0,2.1E1,5E0,1E0,1E0,1E0,1E0,1E0,1E0,3E0,5E0,6E0,6E0,1E0,3.34E2,1E1,2E0,8E0,1E0,1E0,3E0,1.8E1,1E0,4E0,3E0,2E0,1E0,5E0,4E0,2E0],"tree_param":{"num_deleted":"0","num_feature":"28","num_nodes":"47","size_leaf_vector":"1"}},{"base_weights":[1.0586934E-2,7.072539E-4,1.1275084E-1,-1.22997954E-1,8.662831E-3,1.8667187E-1,2.3500824E-2,-1.9602245E-3,-3.3456895E-1,5.2838434E-2,-1.11315865E-2,2.5882626E-1,5.5106297E-2,1.1622038E-1,-1.6585508E-1,-5.9209973E-2,1.1993044E-1,-5.3454015E-2,-1.6074714E-1,-1.3120743E-2,1.6199909E-1,-6.834936E-3,-9.11242E-2,1.9760534E-2,3.3631924E-1,-7.498388E-2,1.10967E-1,1.6914365E-1,-9.893068E-2,-1.1361103E-1,3.524494E-2,-1.1844047E-2,-4.7354635E-2,2.7591508E-2,-1.13166645E-2,7.41713E-2,1.0357058E-3,-6.337728E-4,-2.3458218E-2,-1.4663464E-2,-6.047083E-2,1.5320558E-2,-1.1124516E-2,1.1214636E-1,5.4455283E-3,-3.3607723E-3,-3.0381976E-2,3.7857424E-2,5.2267495E-3,7.361007E-2,-2.7149847E-2,-7.953072E-3,-3.6565736E-2,-1.3922453E-4,1.4190794E-2],"categories":[],"categories_nodes":[],"categories_segments":[],"categories_sizes":[],"default_left":[0,0,0,0,0,0,0,0,0,0,0,0,0,0,0,0,0,0,0,0,0,0,0,0,0,0,0,0,0,0,0,0,0,0,0,0,0,0,0,0,0,0,0,0,0,0,0,0,0,0,0,0,0,0,0],"id":13,"left_children":[1,3,5,7,9,11,13,15,17,19,21,23,25,27,29,31,-1,-1,-1,33,35,37,39,41,43,45,47,49,51,-1,53,-1,-1,-1,-1,-1,-1,-1,-1,-1,-1,-1,-1,-1,-1,-1,-1,-1,-1,-1,-1,-1,-1,-1,-1],"loss_changes":[4.0063095E-1,3.5831058E-1,2.265239E-1,5.627218E-1,2.9964337E-1,1.6610467E-1,3.1774467E-1,3.6865294E-1,1.5631908E-1,7.653412E-1,8.083414E-2,2.1566504E-1,6.645617E-2,1.533715E-1,2.701702E-1,2.101386E-2,0E0,0E0,0E0,1.7669307E-1,5.3971815E-1,7.599307E-2,4.613805E-2,9.012176E-3,1.0060167E-1,3.8957875E-3,6.3463897E-3,2.201139E-1,1.7560348E-3,0E0,1.7442275E-3,0E0,0E0,0E0,0E0,0E0,0E0,0E0,0E0,0E0,0E0,0E0,0E0,0E0,0E0,0E0,0E0,0E0,0E0,0E0,0E0,0E0,0E0,0E0,0E0],"parents":[2147483647,0,0,1,1,2,2,3,3,4,4,5,5,6,6,7,7,8,8,9,9,10,10,11,11,12,12,13,13,14,14,15,15,19,19,20,20,21,21,22,22,23,23,24,24,25,25,26,26,27,27,28,28,30,30],"right_children":[2,4,6,8,10,12,14,16,18,20,22,24,26,28,30,32,-1,-1,-1,34,36,38,40,42,44,46,48,50,52,-1,54,-1,-1,-1,-1,-1,-1,-1,-1,-1,-1,-1,-1,-1,-1,-1,-1,-1,-1,-1,-1,-1,-1,-1,-1],"split_conditions":[5.2171435E-2,1.3611111E1,1E1,2E0,2.05E1,1.4555555E1,2.021E3,1.1E1,3.6016345E-2,5.714286E-1,3E0,1.1916667E1,2.017E3,8E0,1.05802044E-1,4.438168E-2,1.1993044E-1,-5.3454015E-2,-1.6074714E-1,1.5083333E1,2.6E1,3.2690077E-3,1.4638889E1,9E0,6E0,2.015E3,2.023E3,1.2472222E1,2.017E3,-1.1361103E-1,2.022E3,-1.1844047E-2,-4.7354635E-2,2.7591508E-2,-1.13166645E-2,7.41713E-2,1.0357058E-3,-6.337728E-4,-2.3458218E-2,-1.4663464E-2,-6.047083E-2,1.5320558E-2,-1.1124516E-2,1.1214636E-1,5.4455283E-3,-3.3607723E-3,-3.0381976E-2,3.7857424E-2,5.2267495E-3,7.361007E-2,-2.7149847E-2,-7.953072E-3,-3.6565736E-2,-1.3922453E-4,1.4190794E-2],"split_indices":[6,4,1,7,4,4,0,1,6,5,2,4,0,2,6,6,0,0,0,4,3,6,5,1,7,0,0,4,0,0,0,0,0,0,0,0,0,0,0,0,0,0,0,0,0,0,0,0,0,0,0,0,0,0,0],"split_type":[0,0,0,0,0,0,0,0,0,0,0,0,0,0,0,0,0,0,0,0,0,0,0,0,0,0,0,0,0,0,0,0,0,0,0,0,0,0,0,0,0,0,0,0,0,0,0,0,0,0,0,0,0,0,0],"sum_hessian":[3.96E2,3.62E2,3.4E1,2.1E1,3.41E2,1.8E1,1.6E1,1.4E1,7E0,1.05E2,2.36E2,1.1E1,7E0,1.1E1,5E0,1.3E1,1E0,5E0,2E0,6.6E1,3.9E1,2.25E2,1.1E1,3E0,8E0,2E0,5E0,9E0,2E0,2E0,3E0,1.2E1,1E0,1.2E1,5.4E1,2.5E1,1.4E1,2.12E2,1.3E1,9E0,2E0,2E0,1E0,7E0,1E0,1E0,1E0,4E0,1E0,7E0,2E0,1E0,1E0,1E0,2E0],"tree_param":{"num_deleted":"0","num_feature":"28","num_nodes":"55","size_leaf_vector":"1"}},{"base_weights":[5.381204E-4,7.306866E-2,-7.887632E-3,5.094601E-2,1.4369625E-1,-1.0475674E-1,-4.948053E-3,-3.2433122E-2,1.656609E-1,-7.698378E-3,1.1393443E-1,-6.3894846E-2,6.272917E-2,2.329691E-1,-1.1133303E-1,-4.813861E-3,-7.550365E-2,2.0899276E-1,-3.3372104E-2,-1.3937583E-2,-6.450838E-2,1.1217149E-1,4.176128E-2,3.2526463E-2,-6.621752E-2,-1.8132805E-3,6.202867E-2,1.2663049E-2,7.204077E-2,-1.252842E-3,-1.8144E-2],"categories":[],"categories_nodes":[],"categories_segments":[],"categories_sizes":[],"default_left":[0,0,0,0,0,0,0,0,0,0,0,0,0,0,0,0,0,0,0,0,0,0,0,0,0,0,0,0,0,0,0],"id":14,"left_children":[1,3,5,7,-1,-1,9,11,13,15,17,19,-1,21,23,25,-1,27,29,-1,-1,-1,-1,-1,-1,-1,-1,-1,-1,-1,-1],"loss_changes":[2.4074821E-1,3.437776E-1,3.5243097E-1,3.8796604E-1,0E0,0E0,1.1564198E-1,1.957353E-1,3.4288448E-1,2.4088383E-1,1.1899626E-1,4.798433E-2,0E0,1.3295847E-1,1.20088935E-1,9.002043E-2,0E0,1.583445E-2,2.9131914E-3,0E0,0E0,0E0,0E0,0E0,0E0,0E0,0E0,0E0,0E0,0E0,0E0],"parents":[2147483647,0,0,1,1,2,2,3,3,6,6,7,7,8,8,9,9,10,10,11,11,13,13,14,14,15,15,17,17,18,18],"right_children":[2,4,6,8,-1,-1,10,12,14,16,18,20,-1,22,24,26,-1,28,30,-1,-1,-1,-1,-1,-1,-1,-1,-1,-1,-1,-1],"split_conditions":[1.3068966E1,1.2944445E1,1.325E1,3.5E1,1.4369625E-1,-1.0475674E-1,7.2972685E-2,1.2657143E1,1.2472222E1,1E1,9E0,1E0,6.272917E-2,5.3042285E-2,4E0,1.4E1,-7.550365E-2,4E0,1E1,-1.3937583E-2,-6.450838E-2,1.1217149E-1,4.176128E-2,3.2526463E-2,-6.621752E-2,-1.8132805E-3,6.202867E-2,1.2663049E-2,7.204077E-2,-1.252842E-3,-1.8144E-2],"split_indices":[4,4,4,3,0,0,6,5,4,1,2,15,0,6,1,2,0,1,2,0,0,0,0,0,0,0,0,0,0,0,0],"split_type":[0,0,0,0,0,0,0,0,0,0,0,0,0,0,0,0,0,0,0,0,0,0,0,0,0,0,0,0,0,0,0],"sum_hessian":[3.92E2,4E1,3.52E2,3.9E1,1E0,2E0,3.5E2,2.3E1,1.6E1,3.43E2,7E0,2.1E1,2E0,1.3E1,3E0,3.4E2,3E0,4E0,3E0,2E1,1E0,4E0,9E0,1E0,2E0,3.39E2,1E0,1E0,3E0,2E0,1E0],"tree_param":{"num_deleted":"0","num_feature":"28","num_nodes":"31","size_leaf_vector":"1"}},{"base_weights":[-1.0505666E-3,4.119852E-3,-1.4870177E-1,-5.148773E-4,1.8492578E-1,-4.2554535E-2,-2.83139E-1,-5.654038E-3,7.4948594E-2,7.696967E-2,1.2335005E-1,1.4831275E-1,-1.6270697E-1,-1.0727909E-1,-2.6844611E-2,-2.5440145E-3,-8.61758E-2,2.0072944E-1,1.4882187E-2,-8.836682E-3,9.638122E-2,7.013252E-2,-1.621112E-2,-1.0833442E-2,-5.4241136E-2,1.1629908E-3,-1.639446E-2,2.4152393E-2,9.0247184E-2,2.8158167E-2,-1.3172866E-2,1.5668921E-2,4.135199E-2],"categories":[],"categories_nodes":[],"categories_segments":[],"categories_sizes":[],"default_left":[0,0,0,0,0,0,0,0,0,0,0,0,0,0,0,0,0,0,0,0,0,0,0,0,0,0,0,0,0,0,0,0,0],"id":15,"left_children":[1,3,5,7,9,11,13,15,17,19,-1,21,23,-1,-1,25,-1,27,29,-1,31,-1,-1,-1,-1,-1,-1,-1,-1,-1,-1,-1,-1],"loss_changes":[3.1590447E-1,3.3528984E-1,1.8773311E-1,1.5206096E-1,2.1259367E-1,2.3053002E-1,5.451727E-2,3.2067987E-1,1.8589282E-1,1.9366004E-2,0E0,8.1805624E-2,7.2167665E-3,0E0,0E0,1.2198541E-1,0E0,7.204932E-2,8.770032E-2,0E0,5.613908E-3,0E0,0E0,0E0,0E0,0E0,0E0,0E0,0E0,0E0,0E0,0E0,0E0],"parents":[2147483647,0,0,1,1,2,2,3,3,4,4,5,5,6,6,7,7,8,8,9,9,11,11,12,12,15,15,17,17,18,18,20,20],"right_children":[2,4,6,8,10,12,14,16,18,20,-1,22,24,-1,-1,26,-1,28,30,-1,32,-1,-1,-1,-1,-1,-1,-1,-1,-1,-1,-1,-1],"split_conditions":[1.1E1,1E1,3.1917077E-2,7.2972685E-2,4E0,6E0,4E0,1.3E1,9.402174E-2,2.015E3,1.2335005E-1,2.02E3,2.8E1,-1.0727909E-1,-2.6844611E-2,2.2608696E-2,-8.61758E-2,8.723748E-2,1.0861111E1,-8.836682E-3,2.017E3,7.013252E-2,-1.621112E-2,-1.0833442E-2,-5.4241136E-2,1.1629908E-3,-1.639446E-2,2.4152393E-2,9.0247184E-2,2.8158167E-2,-1.3172866E-2,1.5668921E-2,4.135199E-2],"split_indices":[2,2,6,6,7,1,7,1,6,0,0,0,3,0,0,6,0,6,4,0,0,0,0,0,0,0,0,0,0,0,0,0,0],"split_type":[0,0,0,0,0,0,0,0,0,0,0,0,0,0,0,0,0,0,0,0,0,0,0,0,0,0,0,0,0,0,0,0,0],"sum_hessian":[4.12E2,3.99E2,1.3E1,3.9E2,9E0,8E0,5E0,3.66E2,2.4E1,7E0,2E0,3E0,5E0,3E0,2E0,3.63E2,3E0,7E0,1.7E1,1E0,6E0,2E0,1E0,1E0,4E0,3.24E2,3.9E1,4E0,3E0,7E0,1E1,4E0,2E0],"tree_param":{"num_deleted":"0","num_feature":"28","num_nodes":"33","size_leaf_vector":"1"}},{"base_weights":[2.8022004E-3,-9.270569E-3,4.6695866E-2,-7.964175E-3,-6.0374293E-2,2.6751822E-2,2.077078E-1,-9.860008E-3,7.306937E-2,6.71766E-2,-4.7602475E-2,-7.594026E-2,3.6218855E-1,-4.926754E-3,-4.6366267E-2,-1.8232404E-3,1.806243E-1,2.3542518E-2,4.4644803E-1,-2.2260138E-1,2.2882482E-3,5.862002E-2,-6.9456115E-2,4.3935746E-1,-3.5484016E-3,-3.323434E-3,5.056266E-2,1.7122166E-2,-2.8846327E-2,6.427017E-2,1.7010776E-2,3.9691404E-2,-6.0049756E-3,1.9694738E-1,2.6276655E-2,-7.804549E-3,-7.7014685E-2,5.5237215E-2,-1.4504646E-2,1.6076325E-1,7.991624E-3],"categories":[],"categories_nodes":[],"categories_segments":[],"categories_sizes":[],"default_left":[0,0,0,0,0,0,0,0,0,0,0,0,0,0,0,0,0,0,0,0,0,0,0,0,0,0,0,0,0,0,0,0,0,0,0,0,0,0,0,0,0],"id":16,"left_children":[1,3,5,7,-1,9,11,13,15,17,19,21,23,25,27,-1,29,31,33,35,37,-1,-1,39,-1,-1,-1,-1,-1,-1,-1,-1,-1,-1,-1,-1,-1,-1,-1,-1,-1],"loss_changes":[2.0392145E-1,7.413815E-2,2.609755E-1,4.6961896E-2,0E0,2.2862947E-1,4.218682E-1,5.289948E-2,6.0686167E-2,8.003983E-1,2.3624156E-1,2.1409972E-1,1.7837143E-1,2.8037232E-1,1.8574122E-1,0E0,3.4725666E-4,2.1583945E-1,3.1937838E-1,3.35598E-2,2.1147005E-1,0E0,0E0,1.8490285E-1,0E0,0E0,0E0,0E0,0E0,0E0,0E0,0E0,0E0,0E0,0E0,0E0,0E0,0E0,0E0,0E0,0E0],"parents":[2147483647,0,0,1,1,2,2,3,3,5,5,6,6,7,7,8,8,9,9,10,10,11,11,12,12,13,13,14,14,16,16,17,17,18,18,19,19,20,20,23,23],"right_children":[2,4,6,8,-1,10,12,14,16,18,20,22,24,26,28,-1,30,32,34,36,38,-1,-1,40,-1,-1,-1,-1,-1,-1,-1,-1,-1,-1,-1,-1,-1,-1,-1,-1,-1],"split_conditions":[4E0,1.4E1,2.024E3,1E0,-6.0374293E-2,5E0,2.5E1,8E0,1E0,7E0,6E0,1E0,2.9E1,7E0,1.3166667E1,-1.8232404E-3,2.016E3,1.9722221E1,1.686111E1,2.015E3,2.6E1,5.862002E-2,-6.9456115E-2,1.1E1,-3.5484016E-3,-3.323434E-3,5.056266E-2,1.7122166E-2,-2.8846327E-2,6.427017E-2,1.7010776E-2,3.9691404E-2,-6.0049756E-3,1.9694738E-1,2.6276655E-2,-7.804549E-3,-7.7014685E-2,5.5237215E-2,-1.4504646E-2,1.6076325E-1,7.991624E-3],"split_indices":[7,2,0,24,0,1,3,2,1,2,1,1,3,2,4,0,0,4,4,0,3,0,0,1,0,0,0,0,0,0,0,0,0,0,0,0,0,0,0,0,0],"split_type":[0,0,0,0,0,0,0,0,0,0,0,0,0,0,0,0,0,0,0,0,0,0,0,0,0,0,0,0,0,0,0,0,0,0,0,0,0,0,0,0,0],"sum_hessian":[3.83E2,3.01E2,8.2E1,3E2,1E0,7.4E1,8E0,2.94E2,6E0,4.8E1,2.6E1,3E0,5E0,2.6E2,3.4E1,4E0,2E0,4.4E1,4E0,5E0,2.1E1,1E0,2E0,4E0,1E0,2.52E2,8E0,1.1E1,2.3E1,1E0,1E0,1.2E1,3.2E1,2E0,2E0,1E0,4E0,4E0,1.7E1,3E0,1E0],"tree_param":{"num_deleted":"0","num_feature":"28","num_nodes":"41","size_leaf_vector":"1"}},{"base_weights":[-2.8052763E-3,5.1677737E-2,-1.2307325E-2,3.580135E-2,7.830833E-2,-1.7332518E-1,-6.869814E-3,-1.6985315E-1,4.656361E-2,-2.7628005E-1,5.4766773E-3,9.957803E-2,-1.4848345E-2,-1.7116786E-3,-7.4722245E-2,1.062374E-2,1.0253466E-1,-4.2371303E-3,-3.1761882E-1,-4.6002954E-2,3.1709284E-2,1.4779726E-1,-3.1751253E-2,-1.2754676E-1,-1.0750415E-2,-3.9827274E-3,3.731021E-2,2.2249773E-2,1.00486465E-1,-1.9589044E-2,-1.0650715E-1,-1.5726555E-2,-4.011941E-3,5.873835E-2,-1.9664955E-3,-4.5775175E-2,1.4129579E-2,-1.0458488E-3,-1.4015534E-2],"categories":[],"categories_nodes":[],"categories_segments":[],"categories_sizes":[],"default_left":[0,0,0,0,0,0,0,0,0,0,0,0,0,0,0,0,0,0,0,0,0,0,0,0,0,0,0,0,0,0,0,0,0,0,0,0,0,0,0],"id":17,"left_children":[1,3,5,7,-1,9,11,13,15,17,19,21,23,-1,-1,25,27,-1,29,31,-1,33,35,-1,37,-1,-1,-1,-1,-1,-1,-1,-1,-1,-1,-1,-1,-1,-1],"loss_changes":[2.0564532E-1,1.8675444E-1,2.9474062E-1,1.318542E-1,0E0,2.0400685E-1,2.8004813E-1,3.7590683E-2,1.07536696E-1,7.1374476E-2,3.0659081E-2,1.503425E-1,5.099414E-1,0E0,0E0,9.40772E-2,1.1362064E-1,0E0,3.344673E-2,1.3674516E-4,0E0,1.272276E-1,7.387995E-2,0E0,7.92665E-2,0E0,0E0,0E0,0E0,0E0,0E0,0E0,0E0,0E0,0E0,0E0,0E0,0E0,0E0],"parents":[2147483647,0,0,1,1,2,2,3,3,5,5,6,6,7,7,8,8,9,9,10,10,11,11,12,12,15,15,16,16,18,18,19,19,21,21,22,22,24,24],"right_children":[2,4,6,8,-1,10,12,14,16,18,20,22,24,-1,-1,26,28,-1,30,32,-1,34,36,-1,38,-1,-1,-1,-1,-1,-1,-1,-1,-1,-1,-1,-1,-1,-1],"split_conditions":[1.4555555E1,1.425E1,1.5E1,2.015E3,7.830833E-2,6E0,1.6194445E1,1E1,1E1,1E0,2.024E3,4E0,1.6444445E1,-1.7116786E-3,-7.4722245E-2,4E0,2.024E3,-4.2371303E-3,1.4694445E1,1.1E1,3.1709284E-2,8E0,6E0,-1.2754676E-1,4E0,-3.9827274E-3,3.731021E-2,2.2249773E-2,1.00486465E-1,-1.9589044E-2,-1.0650715E-1,-1.5726555E-2,-4.011941E-3,5.873835E-2,-1.9664955E-3,-4.5775175E-2,1.4129579E-2,-1.0458488E-3,-1.4015534E-2],"split_indices":[4,4,4,0,0,1,4,1,1,1,0,7,4,0,0,7,0,0,4,1,0,2,2,0,2,0,0,0,0,0,0,0,0,0,0,0,0,0,0],"split_type":[0,0,0,0,0,0,0,0,0,0,0,0,0,0,0,0,0,0,0,0,0,0,0,0,0,0,0,0,0,0,0,0,0,0,0,0,0,0,0],"sum_hessian":[3.95E2,5.8E1,3.37E2,5.5E1,3E0,1E1,3.27E2,2E0,5.3E1,6E0,4E0,2.2E1,3.05E2,1E0,1E0,3.3E1,2E1,1E0,5E0,3E0,1E0,1.6E1,6E0,2E0,3.03E2,2.8E1,5E0,1.9E1,1E0,1E0,4E0,2E0,1E0,1.2E1,4E0,2E0,4E0,2.53E2,5E1],"tree_param":{"num_deleted":"0","num_feature":"28","num_nodes":"39","size_leaf_vector":"1"}},{"base_weights":[-3.0709582E-4,8.661526E-3,-4.327748E-2,2.0372584E-3,1.0582522E-1,8.561576E-2,-6.304978E-2,-8.523368E-3,3.3824366E-2,2.0467594E-1,-9.274802E-2,-8.000291E-2,1.370208E-1,-9.302754E-2,4.851719E-2,-3.1047843E-3,-1.679835E-1,-7.581084E-3,8.579176E-2,3.8014713E-1,4.5456573E-2,-1.4125925E-1,-8.921979E-3,-1.395607E-3,-3.4605704E-2,4.3979064E-2,1.0498238E-2,-4.6837363E-2,-1.6592532E-1,-3.3457886E-2,2.6181936E-1,-2.2101693E-3,1.6869212E-2,1.11612E-2,-6.0783256E-2,1.9564897E-2,-3.711674E-3,9.022135E-2,1.4857635E-2,1.2865077E-1,1.3202209E-2,3.2476403E-2,-7.929851E-3,-1.3500176E-2,-5.7129454E-2,-1.5106579E-2,6.502261E-3,-6.5838103E-3,-8.404146E-2,-8.973631E-2,-2.9096898E-2,1.360733E-2,-2.0605043E-2,2.4271483E-2,1.2068439E-1],"categories":[],"categories_nodes":[],"categories_segments":[],"categories_sizes":[],"default_left":[0,0,0,0,0,0,0,0,0,0,0,0,0,0,0,0,0,0,0,0,0,0,0,0,0,0,0,0,0,0,0,0,0,0,0,0,0,0,0,0,0,0,0,0,0,0,0,0,0,0,0,0,0,0,0],"id":18,"left_children":[1,3,5,7,9,11,13,15,17,19,21,23,25,27,29,31,33,35,37,39,41,43,45,-1,-1,-1,-1,47,49,51,53,-1,-1,-1,-1,-1,-1,-1,-1,-1,-1,-1,-1,-1,-1,-1,-1,-1,-1,-1,-1,-1,-1,-1,-1],"loss_changes":[1.6069506E-1,2.2183967E-1,1.8889123E-1,1.0905242E-1,4.5082366E-1,9.609841E-2,2.1521866E-1,2.1030618E-1,1.7494082E-1,4.0179598E-1,3.1271726E-2,7.454211E-3,2.6860982E-3,1.605865E-1,2.5355637E-1,6.035496E-2,6.437874E-2,1.685094E-2,2.657367E-1,9.569168E-2,4.3492142E-2,1.5096754E-2,6.1622113E-3,0E0,0E0,0E0,0E0,1.7968145E-1,1.4544511E-1,3.3654936E-2,6.909981E-2,0E0,0E0,0E0,0E0,0E0,0E0,0E0,0E0,0E0,0E0,0E0,0E0,0E0,0E0,0E0,0E0,0E0,0E0,0E0,0E0,0E0,0E0,0E0,0E0],"parents":[2147483647,0,0,1,1,2,2,3,3,4,4,5,5,6,6,7,7,8,8,9,9,10,10,11,11,12,12,13,13,14,14,15,15,16,16,17,17,18,18,19,19,20,20,21,21,22,22,27,27,28,28,29,29,30,30],"right_children":[2,4,6,8,10,12,14,16,18,20,22,24,26,28,30,32,34,36,38,40,42,44,46,-1,-1,-1,-1,48,50,52,54,-1,-1,-1,-1,-1,-1,-1,-1,-1,-1,-1,-1,-1,-1,-1,-1,-1,-1,-1,-1,-1,-1,-1,-1],"split_conditions":[2.2617124E-2,1.2548772E-2,1.0861111E1,2.5E1,1.8305555E1,9E0,5E0,6E0,1.1341083E-3,8E0,2.02E3,2.02E3,2.02E3,3.6E1,1.5638889E1,2E1,1.6555555E1,1.5888889E1,1.2195122E-3,6E0,1.4555555E1,2.015E3,8E0,-1.395607E-3,-3.4605704E-2,4.3979064E-2,1.0498238E-2,1E0,3.97883E-2,1.2944445E1,2.023E3,-2.2101693E-3,1.6869212E-2,1.11612E-2,-6.0783256E-2,1.9564897E-2,-3.711674E-3,9.022135E-2,1.4857635E-2,1.2865077E-1,1.3202209E-2,3.2476403E-2,-7.929851E-3,-1.3500176E-2,-5.7129454E-2,-1.5106579E-2,6.502261E-3,-6.5838103E-3,-8.404146E-2,-8.973631E-2,-2.9096898E-2,1.360733E-2,-2.0605043E-2,2.4271483E-2,1.2068439E-1],"split_indices":[6,6,4,3,4,1,7,2,6,2,0,0,0,3,4,3,4,4,6,1,4,0,3,0,0,0,0,15,6,4,0,0,0,0,0,0,0,0,0,0,0,0,0,0,0,0,0,0,0,0,0,0,0,0,0],"split_type":[0,0,0,0,0,0,0,0,0,0,0,0,0,0,0,0,0,0,0,0,0,0,0,0,0,0,0,0,0,0,0,0,0,0,0,0,0,0,0,0,0,0,0,0,0,0,0,0,0,0,0,0,0,0,0],"sum_hessian":[4.15E2,3.44E2,7.1E1,3.23E2,2.1E1,9E0,6.2E1,2.43E2,8E1,1.4E1,7E0,2E0,7E0,4.9E1,1.3E1,2.36E2,7E0,4.5E1,3.5E1,6E0,8E0,4E0,3E0,1E0,1E0,6E0,1E0,3.1E1,1.8E1,1E1,3E0,2.21E2,1.5E1,1E0,6E0,2E0,4.3E1,4E0,3.1E1,5E0,1E0,4E0,4E0,2E0,2E0,1E0,2E0,2.9E1,2E0,5E0,1.3E1,3E0,7E0,2E0,1E0],"tree_param":{"num_deleted":"0","num_feature":"28","num_nodes":"55","size_leaf_vector":"1"}},{"base_weights":[8.8765286E-4,-9.848053E-3,1.6985731E-2,-3.5619368E-3,-8.822662E-2,2.038109E-1,5.9570814E-3,8.304429E-4,-3.738141E-2,-1.2239392E-1,1.2340788E-1,-1.33231925E-2,3.801828E-1,2.5964E-2,-3.617659E-2,-4.9985177E-3,2.303254E-1,-7.037899E-2,4.5660514E-2,-1.7248352E-1,-1.0163997E-2,-1.0831708E-2,6.636526E-2,-1.0336834E-2,5.740647E-4,1.287345E-1,2.7668113E-2,1.4231857E-2,8.585792E-2,-1.3892342E-1,1.1827011E-2,-6.002879E-4,-2.2669714E-2,-1.820733E-2,1.3337003E-1,-2.430423E-2,1.815793E-2,-1.631289E-2,3.496736E-2,-1.5179793E-2,-5.818403E-2,-4.8209648E-3,2.9048137E-3,4.4253367E-4,-3.193617E-4,7.218812E-3,-3.7731607E-2,4.8179843E-2,-5.4903724E-3,-8.275885E-3,-7.404369E-2,4.13165E-2,-1.2838249E-3],"categories":[],"categories_nodes":[],"categories_segments":[],"categories_sizes":[],"default_left":[0,0,0,0,0,0,0,0,0,0,0,0,0,0,0,0,0,0,0,0,0,0,0,0,0,0,0,0,0,0,0,0,0,0,0,0,0,0,0,0,0,0,0,0,0,0,0,0,0,0,0,0,0],"id":19,"left_children":[1,3,5,7,9,11,13,15,17,19,21,23,25,27,29,31,33,35,37,39,41,-1,-1,-1,43,-1,-1,45,47,49,51,-1,-1,-1,-1,-1,-1,-1,-1,-1,-1,-1,-1,-1,-1,-1,-1,-1,-1,-1,-1,-1,-1],"loss_changes":[6.9988266E-2,1.1941106E-1,3.3257544E-1,3.3602886E-2,1.4526203E-1,3.497324E-1,1.3075589E-1,2.7003244E-1,7.445827E-2,8.81917E-2,5.47931E-2,1.4882281E-3,3.0875504E-2,7.2559915E-2,2.4825394E-1,4.152006E-2,3.3872008E-1,3.135515E-2,6.3076735E-2,1.896274E-2,8.588742E-4,0E0,0E0,0E0,7.4761524E-6,0E0,0E0,1.2552217E-1,1.3528445E-1,1.8538398E-1,7.1559325E-2,0E0,0E0,0E0,0E0,0E0,0E0,0E0,0E0,0E0,0E0,0E0,0E0,0E0,0E0,0E0,0E0,0E0,0E0,0E0,0E0,0E0,0E0],"parents":[2147483647,0,0,1,1,2,2,3,3,4,4,5,5,6,6,7,7,8,8,9,9,10,10,11,11,12,12,13,13,14,14,15,15,16,16,17,17,18,18,19,19,20,20,24,24,27,27,28,28,29,29,30,30],"right_children":[2,4,6,8,10,12,14,16,18,20,22,24,26,28,30,32,34,36,38,40,42,-1,-1,-1,44,-1,-1,46,48,50,52,-1,-1,-1,-1,-1,-1,-1,-1,-1,-1,-1,-1,-1,-1,-1,-1,-1,-1,-1,-1,-1,-1],"split_conditions":[2.5E1,2.2E1,2.6E1,2.850898E-3,9E0,4E0,2.019E3,2.469136E-3,3E0,1.9583334E1,4E0,2.019E3,5E0,2.018E3,5E0,1.3429257E-3,2.017E3,5.018499E-2,2E0,1.6555555E1,2.4E1,-1.0831708E-2,6.636526E-2,-1.0336834E-2,2.021E3,1.287345E-1,2.7668113E-2,1.3E1,1.75E1,7E0,5E0,-6.002879E-4,-2.2669714E-2,-1.820733E-2,1.3337003E-1,-2.430423E-2,1.815793E-2,-1.631289E-2,3.496736E-2,-1.5179793E-2,-5.818403E-2,-4.8209648E-3,2.9048137E-3,4.4253367E-4,-3.193617E-4,7.218812E-3,-3.7731607E-2,4.8179843E-2,-5.4903724E-3,-8.275885E-3,-7.404369E-2,4.13165E-2,-1.2838249E-3],"split_indices":[3,3,3,6,2,2,0,6,2,4,1,0,1,0,1,6,0,6,1,4,3,0,0,0,0,0,0,1,4,2,2,0,0,0,0,0,0,0,0,0,0,0,0,0,0,0,0,0,0,0,0,0,0],"split_type":[0,0,0,0,0,0,0,0,0,0,0,0,0,0,0,0,0,0,0,0,0,0,0,0,0,0,0,0,0,0,0,0,0,0,0,0,0,0,0,0,0,0,0,0,0,0,0,0,0,0,0,0,0],"sum_hessian":[4.03E2,2.42E2,1.61E2,2.25E2,1.7E1,8E0,1.53E2,2E2,2.5E1,1.5E1,2E0,4E0,4E0,1.04E2,4.9E1,1.96E2,4E0,1.8E1,7E0,1E1,5E0,1E0,1E0,1E0,3E0,3E0,1E0,8.8E1,1.6E1,1.5E1,3.4E1,1.89E2,7E0,2E0,2E0,1.7E1,1E0,3E0,4E0,2E0,8E0,4E0,1E0,2E0,1E0,8.3E1,5E0,9E0,7E0,8E0,7E0,3E0,3.1E1],"tree_param":{"num_deleted":"0","num_feature":"28","num_nodes":"53","size_leaf_vector":"1"}},{"base_weights":[1.7007209E-3,2.756553E-3,-1.4210743E-1,-2.8303647E-3,3.9330855E-2,7.072396E-3,-7.102074E-2,4.7355428E-4,-8.953113E-2,1.297885E-2,2.4798377E-1,-1.860092E-3,9.81358E-2,-1.6447213E-1,2.1509624E-1,-5.5866558E-2,4.21132E-2,3.4071463E-1,4.168135E-2,6.5637566E-4,-1.0985953E-2,1.1432276E-1,9.829147E-4,-6.5289855E-2,1.4950228E-2,8.173296E-2,1.5060354E-2,-2.4706537E-2,1.12697305E-2,3.0908294E-2,-1.0998577E-2,1.1532987E-1,3.143399E-2,1.8452043E-2,3.0456483E-4],"categories":[],"categories_nodes":[],"categories_segments":[],"categories_sizes":[],"default_left":[0,0,0,0,0,0,0,0,0,0,0,0,0,0,0,0,0,0,0,0,0,0,0,0,0,0,0,0,0,0,0,0,0,0,0],"id":20,"left_children":[1,3,5,7,9,-1,-1,11,13,15,17,19,21,23,25,27,29,31,33,-1,-1,-1,-1,-1,-1,-1,-1,-1,-1,-1,-1,-1,-1,-1,-1],"loss_changes":[6.249317E-2,8.3276734E-2,5.2615635E-2,1.0144651E-1,2.9369628E-1,0E0,0E0,7.8127466E-2,3.3215538E-1,1.0063527E-1,1.0058218E-1,4.721725E-2,2.1346766E-1,1.3616496E-1,1.46917105E-2,4.021705E-2,1.7172618E-1,9.777248E-4,2.3562317E-3,0E0,0E0,0E0,0E0,0E0,0E0,0E0,0E0,0E0,0E0,0E0,0E0,0E0,0E0,0E0,0E0],"parents":[2147483647,0,0,1,1,2,2,3,3,4,4,7,7,8,8,9,9,10,10,11,11,12,12,13,13,14,14,15,15,16,16,17,17,18,18],"right_children":[2,4,6,8,10,-1,-1,12,14,16,18,20,22,24,26,28,30,32,34,-1,-1,-1,-1,-1,-1,-1,-1,-1,-1,-1,-1,-1,-1,-1,-1],"split_conditions":[8E0,8E0,3E0,7E0,1.6722221E1,7.072396E-3,-7.102074E-2,1.3E1,5E0,4E0,2.0055555E1,5E0,2.8242888E-2,6.878049E-2,2E0,4E0,6.126847E-2,2.8E1,4E0,6.5637566E-4,-1.0985953E-2,1.1432276E-1,9.829147E-4,-6.5289855E-2,1.4950228E-2,8.173296E-2,1.5060354E-2,-2.4706537E-2,1.12697305E-2,3.0908294E-2,-1.0998577E-2,1.1532987E-1,3.143399E-2,1.8452043E-2,3.0456483E-4],"split_indices":[7,2,1,2,5,0,0,1,7,1,5,2,6,6,1,7,6,3,1,0,0,0,0,0,0,0,0,0,0,0,0,0,0,0,0],"split_type":[0,0,0,0,0,0,0,0,0,0,0,0,0,0,0,0,0,0,0,0,0,0,0,0,0,0,0,0,0,0,0,0,0,0,0],"sum_hessian":[4.08E2,4.06E2,2E0,3.53E2,5.3E1,1E0,1E0,3.41E2,1.2E1,4.8E1,5E0,3.34E2,7E0,1E1,2E0,1.4E1,3.4E1,3E0,2E0,3E2,3.4E1,1E0,6E0,8E0,2E0,1E0,1E0,1.1E1,3E0,1.9E1,1.5E1,2E0,1E0,1E0,1E0],"tree_param":{"num_deleted":"0","num_feature":"28","num_nodes":"35","size_leaf_vector":"1"}},{"base_weights":[3.3291006E-3,-8.122648E-3,2.6797548E-2,-1.2550738E-3,-3.2645207E-2,4.8089147E-2,-3.6017902E-2,-4.202252E-3,2.1234249E-1,-5.4709617E-2,-8.021667E-3,-2.0211503E-2,8.2536705E-2,5.1774226E-2,-4.7229063E-2,-1.4228286E-2,-4.5546997E-4,9.854734E-3,8.569939E-2,1.3163284E-2,-7.788239E-2,-2.0595893E-2,1.1201168E-1,1.5127871E-2,-1.10072725E-1,2.6981935E-1,5.662198E-2,2.3913218E-2,-9.822432E-2,1.9900657E-3,-5.01455E-3,9.261218E-5,-1.8179322E-2,-2.7802043E-2,5.0588284E-2,-3.3423644E-2,-2.886101E-3,-2.8589158E-3,-2.0878308E-2,9.826142E-5,5.0306994E-2,-8.514008E-3,4.118251E-2,-4.1583303E-2,8.160768E-4,-6.169797E-3,1.11012645E-1,6.1032105E-2,1.2824944E-2,-3.0543081E-2,3.571234E-2,-3.8635932E-2,-1.6344936E-3],"categories":[],"categories_nodes":[],"categories_segments":[],"categories_sizes":[],"default_left":[0,0,0,0,0,0,0,0,0,0,0,0,0,0,0,0,0,0,0,0,0,0,0,0,0,0,0,0,0,0,0,0,0,0,0,0,0,0,0,0,0,0,0,0,0,0,0,0,0,0,0,0,0],"id":21,"left_children":[1,3,5,7,9,11,13,15,17,19,21,23,25,-1,27,29,31,-1,-1,33,35,37,39,41,43,45,47,49,51,-1,-1,-1,-1,-1,-1,-1,-1,-1,-1,-1,-1,-1,-1,-1,-1,-1,-1,-1,-1,-1,-1,-1,-1],"loss_changes":[1.11482136E-1,4.694556E-2,1.836241E-1,1.38755E-1,3.270267E-2,2.4165282E-1,9.000296E-2,8.145202E-3,3.0098692E-2,5.1354893E-2,4.7586776E-2,1.1281254E-1,3.14752E-1,0E0,1.256981E-1,3.1718528E-3,7.326244E-3,0E0,0E0,1.6371186E-1,5.385962E-2,1.45191E-2,1.8600225E-2,1.4206937E-1,3.2566234E-2,2.4043608E-1,1.1554098E-1,1.915168E-1,5.600694E-2,0E0,0E0,0E0,0E0,0E0,0E0,0E0,0E0,0E0,0E0,0E0,0E0,0E0,0E0,0E0,0E0,0E0,0E0,0E0,0E0,0E0,0E0,0E0,0E0],"parents":[2147483647,0,0,1,1,2,2,3,3,4,4,5,5,6,6,7,7,8,8,9,9,10,10,11,11,12,12,14,14,15,15,16,16,19,19,20,20,21,21,22,22,23,23,24,24,25,25,26,26,27,27,28,28],"right_children":[2,4,6,8,10,12,14,16,18,20,22,24,26,-1,28,30,32,-1,-1,34,36,38,40,42,44,46,48,50,52,-1,-1,-1,-1,-1,-1,-1,-1,-1,-1,-1,-1,-1,-1,-1,-1,-1,-1,-1,-1,-1,-1,-1,-1],"split_conditions":[3.8369305E-3,5.1308365E-4,9E0,5E0,2.3472221E1,2.5E1,2.3E1,2.4555555E1,2.017E3,1.75E1,2.024E3,2.2E1,2.6E1,5.1774226E-2,1.3166667E1,8.305555E0,5E0,9.854734E-3,8.569939E-2,2E0,2.7216175E-3,1E0,1E0,1.9E1,1.925E1,4E0,2E0,2.018E3,6.0423918E-2,1.9900657E-3,-5.01455E-3,9.261218E-5,-1.8179322E-2,-2.7802043E-2,5.0588284E-2,-3.3423644E-2,-2.886101E-3,-2.8589158E-3,-2.0878308E-2,9.826142E-5,5.0306994E-2,-8.514008E-3,4.118251E-2,-4.1583303E-2,8.160768E-4,-6.169797E-3,1.11012645E-1,6.1032105E-2,1.2824944E-2,-3.0543081E-2,3.571234E-2,-3.8635932E-2,-1.6344936E-3],"split_indices":[6,6,2,2,4,3,3,4,0,4,0,3,3,0,4,4,7,0,0,7,6,1,2,3,4,2,1,0,6,0,0,0,0,0,0,0,0,0,0,0,0,0,0,0,0,0,0,0,0,0,0,0,0],"split_type":[0,0,0,0,0,0,0,0,0,0,0,0,0,0,0,0,0,0,0,0,0,0,0,0,0,0,0,0,0,0,0,0,0,0,0,0,0,0,0,0,0,0,0,0,0,0,0,0,0,0,0,0,0],"sum_hessian":[4.13E2,2.78E2,1.35E2,2.18E2,6E1,1.01E2,3.4E1,2.16E2,2E0,3.1E1,2.9E1,3.4E1,6.7E1,1E0,3.3E1,5.8E1,1.58E2,1E0,1E0,8E0,2.3E1,2.7E1,2E0,2.5E1,9E0,7E0,6E1,1.4E1,1.9E1,6E0,5.2E1,1.57E2,1E0,5E0,3E0,1.5E1,8E0,2.3E1,4E0,1E0,1E0,1.9E1,6E0,7E0,2E0,2E0,5E0,4E0,5.6E1,6E0,8E0,1.4E1,5E0],"tree_param":{"num_deleted":"0","num_feature":"28","num_nodes":"53","size_leaf_vector":"1"}},{"base_weights":[1.22628985E-2,3.360694E-2,-2.0790314E-4,1.2718137E-2,8.3166175E-2,2.811256E-3,-5.259703E-2,2.5482213E-2,-7.298023E-2,1.3791525E-1,-2.1264438E-2,6.0550314E-3,-3.1768415E-2,-1.3525239E-2,-1.2022121E-1,1.8361446E-2,5.379868E-2,-1.3452895E-1,6.471326E-2,1.2900995E-1,1.0034975E-1,6.4851284E-2,-4.6125855E-2,1.123596E-3,1.10195726E-1,-1.7817257E-2,-3.2860883E-2,1.3034671E-3,-2.204754E-2,-4.024388E-2,-9.678155E-3,-3.2381327E-3,1.4726165E-2,-4.9551517E-2,2.1188378E-2,-9.297407E-3,4.1654043E-2,1.5793843E-3,5.6480113E-2,5.5553915E-4,2.5570154E-2,-2.6695821E-2,-7.310756E-3,-5.4788456E-4,1.0347937E-2,2.346945E-3,-1.2502783E-2,-7.371764E-3,5.5010696E-3],"categories":[],"categories_nodes":[],"categories_segments":[],"categories_sizes":[],"default_left":[0,0,0,0,0,0,0,0,0,0,0,0,0,0,0,0,0,0,0,0,0,0,0,0,0,0,0,0,0,0,0,0,0,0,0,0,0,0,0,0,0,0,0,0,0,0,0,0,0],"id":22,"left_children":[1,3,5,7,9,11,13,15,17,19,21,23,25,27,29,31,-1,33,35,-1,37,39,41,43,-1,45,-1,47,-1,-1,-1,-1,-1,-1,-1,-1,-1,-1,-1,-1,-1,-1,-1,-1,-1,-1,-1,-1,-1],"loss_changes":[1.0754263E-1,1.5319201E-1,4.0639672E-2,1.1780891E-1,2.5450182E-1,2.7449347E-2,3.536475E-2,9.858938E-2,1.2735385E-1,2.750795E-1,3.7246667E-2,3.96873E-1,2.0832349E-2,8.988059E-3,1.7966554E-3,8.1153326E-2,0E0,7.453145E-2,3.9777655E-2,0E0,2.2471878E-1,4.9785282E-3,9.9539235E-3,2.1817353E-2,0E0,1.1949219E-2,0E0,4.417399E-3,0E0,0E0,0E0,0E0,0E0,0E0,0E0,0E0,0E0,0E0,0E0,0E0,0E0,0E0,0E0,0E0,0E0,0E0,0E0,0E0,0E0],"parents":[2147483647,0,0,1,1,2,2,3,3,4,4,5,5,6,6,7,7,8,8,9,9,10,10,11,11,12,12,13,13,14,14,15,15,17,17,18,18,20,20,21,21,22,22,23,23,25,25,27,27],"right_children":[2,4,6,8,10,12,14,16,18,20,22,24,26,28,30,32,-1,34,36,-1,38,40,42,44,-1,46,-1,48,-1,-1,-1,-1,-1,-1,-1,-1,-1,-1,-1,-1,-1,-1,-1,-1,-1,-1,-1,-1,-1],"split_conditions":[1.9722221E1,4E0,4E0,1.1333333E1,4.2795565E-2,2.850898E-3,2.0791986E-3,9.861111E0,1.725E1,1.3068966E1,5E0,2.469136E-3,1.9222221E1,1.6805555E1,3.4E1,3.3E1,5.379868E-2,3E1,2.7E1,1.2900995E-1,1.1111111E-1,2.6E1,6.580196E-2,1.1403592E-3,1.10195726E-1,1.8E1,-3.2860883E-2,2.1E1,-2.204754E-2,-4.024388E-2,-9.678155E-3,-3.2381327E-3,1.4726165E-2,-4.9551517E-2,2.1188378E-2,-9.297407E-3,4.1654043E-2,1.5793843E-3,5.6480113E-2,5.5553915E-4,2.5570154E-2,-2.6695821E-2,-7.310756E-3,-5.4788456E-4,1.0347937E-2,2.346945E-3,-1.2502783E-2,-7.371764E-3,5.5010696E-3],"split_indices":[4,7,2,5,6,6,6,5,5,4,2,6,5,5,3,3,0,3,3,0,5,3,6,6,0,3,0,4,0,0,0,0,0,0,0,0,0,0,0,0,0,0,0,0,0,0,0,0,0],"split_type":[0,0,0,0,0,0,0,0,0,0,0,0,0,0,0,0,0,0,0,0,0,0,0,0,0,0,0,0,0,0,0,0,0,0,0,0,0,0,0,0,0,0,0,0,0,0,0,0,0],"sum_hessian":[4.03E2,1.48E2,2.55E2,1.05E2,4.3E1,2.42E2,1.3E1,9.2E1,1.3E1,2.8E1,1.5E1,2.22E2,2E1,9E0,4E0,8.9E1,3E0,9E0,4E0,2E0,2.6E1,3E0,1.2E1,2.2E2,2E0,1.8E1,2E0,8E0,1E0,3E0,1E0,4.6E1,4.3E1,8E0,1E0,2E0,2E0,1.3E1,1.3E1,1E0,2E0,3E0,9E0,2.03E2,1.7E1,9E0,9E0,3E0,5E0],"tree_param":{"num_deleted":"0","num_feature":"28","num_nodes":"49","size_leaf_vector":"1"}},{"base_weights":[-3.6004833E-3,-3.902955E-2,4.5132525E-5,-1.7837232E-2,-1.7956986E-1,1.08074136E-1,-1.9769215E-3,-4.624823E-3,-4.71684E-2,-8.595233E-2,-1.2775342E-2,2.0304093E-1,-1.3911188E-2,-7.23942E-2,1.5650441E-4,1.5712306E-2,-3.0076865E-2,8.67362E-3,-1.4422525E-2,-8.015335E-4,8.175073E-2,-1.2512184E-2,1.0421563E-2,-1.7784655E-2,-4.905442E-2,1.053882E-1,-2.8082095E-3,-4.504412E-3,1.0466287E-2,-4.0178463E-2,2.1139968E-3,-5.4539405E-2,9.48509E-3,7.108035E-2,4.549029E-3,-2.5276117E-2,-6.0976938E-5],"categories":[],"categories_nodes":[],"categories_segments":[],"categories_sizes":[],"default_left":[0,0,0,0,0,0,0,0,0,0,0,0,0,0,0,0,0,0,0,0,0,0,0,0,0,0,0,0,0,0,0,0,0,0,0,0,0],"id":23,"left_children":[1,3,5,7,9,11,13,15,-1,-1,17,19,21,23,25,27,29,-1,-1,-1,-1,-1,-1,31,-1,33,35,-1,-1,-1,-1,-1,-1,-1,-1,-1,-1],"loss_changes":[5.399096E-2,1.1295359E-1,8.322103E-2,6.373192E-2,8.5523024E-2,8.391643E-2,5.6197364E-2,1.7554086E-2,0E0,0E0,5.804614E-3,5.7884514E-2,6.857939E-3,5.1828507E-2,1.1385735E-1,1.1718631E-2,5.8773667E-2,0E0,0E0,0E0,0E0,0E0,0E0,7.0568115E-2,0E0,1.1509461E-1,7.530029E-2,0E0,0E0,0E0,0E0,0E0,0E0,0E0,0E0,0E0,0E0],"parents":[2147483647,0,0,1,1,2,2,3,3,4,4,5,5,6,6,7,7,10,10,11,11,12,12,13,13,14,14,15,15,16,16,23,23,25,25,26,26],"right_children":[2,4,6,8,10,12,14,16,-1,-1,18,20,22,24,26,28,30,-1,-1,-1,-1,-1,-1,32,-1,34,36,-1,-1,-1,-1,-1,-1,-1,-1,-1,-1],"split_conditions":[1.275E1,1.2027778E1,1.3068966E1,1E0,5.860556E-2,5.438849E-2,1.3694445E1,1.0861111E1,-4.71684E-2,-8.595233E-2,2.018E3,1.9421324E-2,1.2914286E1,1.2E1,1.4555555E1,5.018499E-2,1.1121212E1,8.67362E-3,-1.4422525E-2,-8.015335E-4,8.175073E-2,-1.2512184E-2,1.0421563E-2,2.015E3,-4.905442E-2,2.016E3,1.5E1,-4.504412E-3,1.0466287E-2,-4.0178463E-2,2.1139968E-3,-5.4539405E-2,9.48509E-3,7.108035E-2,4.549029E-3,-2.5276117E-2,-6.0976938E-5],"split_indices":[4,4,4,15,6,6,4,4,0,0,0,6,4,5,4,6,4,0,0,0,0,0,0,0,0,0,4,0,0,0,0,0,0,0,0,0,0],"split_type":[0,0,0,0,0,0,0,0,0,0,0,0,0,0,0,0,0,0,0,0,0,0,0,0,0,0,0,0,0,0,0,0,0,0,0,0,0],"sum_hessian":[4.17E2,3.8E1,3.79E2,3.4E1,4E0,6E0,3.73E2,3.2E1,2E0,2E0,2E0,3E0,3E0,1E1,3.63E2,1.8E1,1.4E1,1E0,1E0,1E0,2E0,2E0,1E0,7E0,3E0,9E0,3.54E2,7E0,1.1E1,3E0,1.1E1,1E0,6E0,3E0,6E0,1E1,3.44E2],"tree_param":{"num_deleted":"0","num_feature":"28","num_nodes":"37","size_leaf_vector":"1"}},{"base_weights":[8.661387E-3,2.6806537E-2,5.6005636E-4,-3.40439E-2,4.2497363E-2,5.259355E-3,-9.2458926E-2,-8.234837E-3,-1.06607676E-1,1.128457E-1,-3.9594434E-3,2.5939045E-3,1.0769904E-1,-9.897278E-3,-9.962102E-2,-3.4467872E-2,2.117229E-3,-1.2144315E-1,-2.6392222E-3,2.086274E-1,3.6307503E-2,-7.785383E-2,1.4954016E-2,6.6765565E-3,-4.3917775E-2,2.5153017E-1,-6.305686E-2,-1.828959E-2,-1.2811586E-1,-4.5150984E-4,-1.5171912E-2,1.4297127E-3,-5.6414953E-3,-4.1296493E-2,-6.0576033E-3,1.4526334E-1,4.3174878E-2,-4.5078015E-3,5.784371E-2,-4.0529598E-2,3.4344718E-3,8.100352E-3,-2.3969956E-2,1.35987E-3,8.106707E-2,-4.025573E-3,-2.1959132E-2,9.745485E-2,4.7358354E-3,-2.985324E-2,6.945742E-3,-1.1106938E-2,-4.167893E-2],"categories":[],"categories_nodes":[],"categories_segments":[],"categories_sizes":[],"default_left":[0,0,0,0,0,0,0,0,0,0,0,0,0,0,0,0,0,0,0,0,0,0,0,0,0,0,0,0,0,0,0,0,0,0,0,0,0,0,0,0,0,0,0,0,0,0,0,0,0,0,0,0,0],"id":24,"left_children":[1,3,5,7,9,11,13,15,17,19,21,23,25,-1,27,29,31,33,-1,35,37,39,41,43,45,47,49,-1,51,-1,-1,-1,-1,-1,-1,-1,-1,-1,-1,-1,-1,-1,-1,-1,-1,-1,-1,-1,-1,-1,-1,-1,-1],"loss_changes":[6.143093E-2,1.24615155E-1,1.2725225E-1,4.9687784E-2,3.3706713E-1,7.535491E-2,2.6762113E-3,5.7758647E-3,9.089053E-3,2.9299456E-1,8.9212924E-2,5.175368E-2,1.877808E-1,0E0,5.407244E-3,3.1091175E-3,9.762121E-4,7.06926E-3,0E0,2.5131434E-1,1.9571185E-1,6.80037E-2,6.043607E-2,1.400137E-1,1.8663716E-2,6.401029E-2,1.4874596E-2,0E0,7.668063E-4,0E0,0E0,0E0,0E0,0E0,0E0,0E0,0E0,0E0,0E0,0E0,0E0,0E0,0E0,0E0,0E0,0E0,0E0,0E0,0E0,0E0,0E0,0E0,0E0],"parents":[2147483647,0,0,1,1,2,2,3,3,4,4,5,5,6,6,7,7,8,8,9,9,10,10,11,11,12,12,14,14,15,15,16,16,17,17,19,19,20,20,21,21,22,22,23,23,24,24,25,25,26,26,28,28],"right_children":[2,4,6,8,10,12,14,16,18,20,22,24,26,-1,28,30,32,34,-1,36,38,40,42,44,46,48,50,-1,52,-1,-1,-1,-1,-1,-1,-1,-1,-1,-1,-1,-1,-1,-1,-1,-1,-1,-1,-1,-1,-1,-1,-1,-1],"split_conditions":[1.7875E1,3.076923E-3,1.0108695E-2,1.8536586E-3,3.3118278E-2,6.451001E-3,2.015E3,2.016E3,2.021E3,8E0,5.0537635E-2,2.4976584E-3,5.2222223E0,-9.897278E-3,3E0,1.2027778E1,1.1111111E-1,1.7583334E1,-2.6392222E-3,2.016E3,2.5419664E-2,2.019E3,1.1E1,2.469136E-3,1E0,2.024E3,2.022E3,-1.828959E-2,1.8305555E1,-4.5150984E-4,-1.5171912E-2,1.4297127E-3,-5.6414953E-3,-4.1296493E-2,-6.0576033E-3,1.4526334E-1,4.3174878E-2,-4.5078015E-3,5.784371E-2,-4.0529598E-2,3.4344718E-3,8.100352E-3,-2.3969956E-2,1.35987E-3,8.106707E-2,-4.025573E-3,-2.1959132E-2,9.745485E-2,4.7358354E-3,-2.985324E-2,6.945742E-3,-1.1106938E-2,-4.167893E-2],"split_indices":[4,6,6,6,6,6,0,0,0,2,6,6,5,0,1,4,5,4,0,0,6,0,2,6,1,0,0,0,4,0,0,0,0,0,0,0,0,0,0,0,0,0,0,0,0,0,0,0,0,0,0,0,0],"split_type":[0,0,0,0,0,0,0,0,0,0,0,0,0,0,0,0,0,0,0,0,0,0,0,0,0,0,0,0,0,0,0,0,0,0,0,0,0,0,0,0,0,0,0,0,0,0,0,0,0,0,0,0,0],"sum_hessian":[4.17E2,1.28E2,2.89E2,2.6E1,1.02E2,2.76E2,1.3E1,2E1,6E0,4E1,6.2E1,2.7E2,6E0,2E0,1.1E1,5E0,1.5E1,5E0,1E0,1.7E1,2.3E1,1.2E1,5E1,2.49E2,2.1E1,3E0,3E0,6E0,5E0,2E0,3E0,1.4E1,1E0,4E0,1E0,2E0,1.5E1,1.8E1,5E0,7E0,5E0,4.5E1,5E0,2.48E2,1E0,1.1E1,1E1,2E0,1E0,2E0,1E0,1E0,4E0],"tree_param":{"num_deleted":"0","num_feature":"28","num_nodes":"53","size_leaf_vector":"1"}},{"base_weights":[2.2019192E-3,1.5078682E-3,4.384729E-2,2.330813E-3,-3.393294E-2,-1.0230261E-4,5.051162E-2,5.5987313E-3,-2.0184329E-2,1.2825137E-1,-1.2137388E-3,-3.7142637E-4,1.1195768E-2,-1.6534556E-2,8.168318E-3,5.181513E-2,-1.0291577E-3,5.711315E-3,-3.663468E-2],"categories":[],"categories_nodes":[],"categories_segments":[],"categories_sizes":[],"default_left":[0,0,0,0,0,0,0,0,0,0,0,0,0,0,0,0,0,0,0],"id":25,"left_children":[1,3,-1,5,-1,7,9,11,13,15,17,-1,-1,-1,-1,-1,-1,-1,-1],"loss_changes":[4.1642994E-2,3.9691083E-2,0E0,4.8772626E-2,0E0,4.5564868E-2,8.0577984E-2,6.727506E-2,1.4724131E-1,4.743515E-2,3.41545E-2,0E0,0E0,0E0,0E0,0E0,0E0,0E0,0E0],"parents":[2147483647,0,0,1,1,3,3,5,5,6,6,7,7,8,8,9,9,10,10],"right_children":[2,4,-1,6,-1,8,10,12,14,16,18,-1,-1,-1,-1,-1,-1,-1,-1],"split_conditions":[1.6E1,1.4E1,4.384729E-2,1E1,-3.393294E-2,3E0,1.3166667E1,1E0,4.285714E0,1.3E1,7E0,-3.7142637E-4,1.1195768E-2,-1.6534556E-2,8.168318E-3,5.181513E-2,-1.0291577E-3,5.711315E-3,-3.663468E-2],"split_indices":[2,2,0,2,0,1,4,1,5,1,1,0,0,0,0,0,0,0,0],"split_type":[0,0,0,0,0,0,0,0,0,0,0,0,0,0,0,0,0,0,0],"sum_hessian":[4.18E2,4.17E2,1E0,4.15E2,2E0,3.96E2,1.9E1,3.09E2,8.7E1,7E0,1.2E1,2.55E2,5.4E1,5E1,3.7E1,5E0,2E0,1.1E1,1E0],"tree_param":{"num_deleted":"0","num_feature":"28","num_nodes":"19","size_leaf_vector":"1"}},{"base_weights":[1.3868999E-3,2.6500344E-3,-4.8519295E-2,-2.0987857E-3,3.0196626E-2,3.444151E-2,-3.2870024E-2,1.6519725E-3,-2.9989464E-2,8.383288E-2,-4.9097748E-3,3.72702E-2,-1.9065112E-2,-1.2101049E-3,8.4200814E-2,-9.686365E-2,9.745238E-3,1.4330125E-1,3.5367407E-2,2.4209624E-2,-9.4957925E-2,-1.73486E-2,1.4583833E-2,5.5326923E-4,-1.7137676E-2,-1.7271966E-2,4.595576E-2,-1.0514362E-2,-5.5123806E-2,5.2240632E-2,-1.1306235E-2,5.6409653E-2,1.8289177E-2,-1.3596572E-2,3.6759384E-2,2.1940503E-2,-3.217372E-2,-5.071021E-2,1.196871E-2],"categories":[],"categories_nodes":[],"categories_segments":[],"categories_sizes":[],"default_left":[0,0,0,0,0,0,0,0,0,0,0,0,0,0,0,0,0,0,0,0,0,0,0,0,0,0,0,0,0,0,0,0,0,0,0,0,0,0,0],"id":26,"left_children":[1,3,5,7,9,11,-1,13,15,17,19,-1,21,23,25,27,29,31,33,35,37,-1,-1,-1,-1,-1,-1,-1,-1,-1,-1,-1,-1,-1,-1,-1,-1,-1,-1],"loss_changes":[2.5532989E-2,5.1604014E-2,5.44191E-2,3.5303514E-2,1.0962421E-1,2.6390996E-2,0E0,7.050773E-2,1.07232995E-1,6.1221555E-2,9.669623E-2,0E0,1.33049525E-2,4.946212E-2,1.0662228E-1,7.412061E-2,2.0929691E-1,2.5367051E-2,1.0401805E-1,1.8792553E-1,9.664861E-2,0E0,0E0,0E0,0E0,0E0,0E0,0E0,0E0,0E0,0E0,0E0,0E0,0E0,0E0,0E0,0E0,0E0,0E0],"parents":[2147483647,0,0,1,1,2,2,3,3,4,4,5,5,7,7,8,8,9,9,10,10,12,12,13,13,14,14,15,15,16,16,17,17,18,18,19,19,20,20],"right_children":[2,4,6,8,10,12,-1,14,16,18,20,-1,22,24,26,28,30,32,34,36,38,-1,-1,-1,-1,-1,-1,-1,-1,-1,-1,-1,-1,-1,-1,-1,-1,-1,-1],"split_conditions":[1.2E1,7E0,6E0,4E0,3.6E1,2.016E3,-3.2870024E-2,2.0672843E-2,8E0,8.1E0,2.019E3,3.72702E-2,2.019E3,7.0967744E-3,2.021E3,2.6E1,2.017E3,3.97883E-2,1.6722221E1,1E1,8E0,-1.73486E-2,1.4583833E-2,5.5326923E-4,-1.7137676E-2,-1.7271966E-2,4.595576E-2,-1.0514362E-2,-5.5123806E-2,5.2240632E-2,-1.1306235E-2,5.6409653E-2,1.8289177E-2,-1.3596572E-2,3.6759384E-2,2.1940503E-2,-3.217372E-2,-5.071021E-2,1.196871E-2],"split_indices":[2,2,1,1,3,0,0,6,1,5,0,0,0,6,0,3,0,6,5,1,1,0,0,0,0,0,0,0,0,0,0,0,0,0,0,0,0,0,0],"split_type":[0,0,0,0,0,0,0,0,0,0,0,0,0,0,0,0,0,0,0,0,0,0,0,0,0,0,0,0,0,0,0,0,0,0,0,0,0,0,0],"sum_hessian":[4.02E2,3.93E2,9E0,3.36E2,5.7E1,4E0,5E0,2.97E2,3.9E1,2.2E1,3.5E1,1E0,3E0,2.88E2,9E0,1.4E1,2.5E1,9E0,1.3E1,2.7E1,8E0,2E0,1E0,2.74E2,1.4E1,3E0,6E0,9E0,5E0,5E0,2E1,5E0,4E0,7E0,6E0,2E1,7E0,5E0,3E0],"tree_param":{"num_deleted":"0","num_feature":"28","num_nodes":"39","size_leaf_vector":"1"}},{"base_weights":[2.7523378E-3,1.2387182E-2,-4.152072E-3,5.712026E-3,1.0313831E-1,1.5790667E-3,-4.119182E-2,2.8730223E-2,-1.7374992E-2,1.9007583E-1,-1.5478502E-2,-9.0209616E-4,4.3420482E-2,-2.4000674E-2,-1.1455186E-1,2.2772165E-2,7.7593654E-2,1.2750312E-2,-3.1340048E-2,8.149266E-3,2.6121658E-1,3.7634272E-2,-1.5433038E-2,1.0931459E-4,-3.078106E-2,6.887974E-2,5.622505E-3,-3.738072E-2,7.582807E-5,-4.237295E-2,-1.2233848E-2,-1.9442405E-3,1.6094942E-2,1.0954005E-4,5.0214745E-2,6.2415276E-2,-1.1799024E-2,-9.0889875E-3,1.2756158E-2,8.6555585E-2,2.280128E-2,1.8826865E-2,-1.8914402E-3,-3.92883E-4,2.1202046E-2,-1.8056057E-3,3.940328E-3,-7.302727E-3,-1.7820075E-2,-5.9585725E-3,8.392048E-3],"categories":[],"categories_nodes":[],"categories_segments":[],"categories_sizes":[],"default_left":[0,0,0,0,0,0,0,0,0,0,0,0,0,0,0,0,0,0,0,0,0,0,0,0,0,0,0,0,0,0,0,0,0,0,0,0,0,0,0,0,0,0,0,0,0,0,0,0,0,0,0],"id":27,"left_children":[1,3,5,7,9,11,13,15,17,19,21,23,25,27,29,31,-1,33,35,37,39,41,-1,43,-1,-1,45,47,49,-1,-1,-1,-1,-1,-1,-1,-1,-1,-1,-1,-1,-1,-1,-1,-1,-1,-1,-1,-1,-1,-1],"loss_changes":[2.8057579E-2,1.060278E-1,5.2285906E-2,8.8183746E-2,1.266891E-1,2.2255657E-2,3.8868397E-2,1.0780752E-1,3.5317823E-2,8.8468045E-2,1.3397228E-2,2.0892188E-2,8.315519E-2,9.022888E-3,6.054662E-3,7.441522E-2,0E0,5.1647857E-2,1.1720894E-1,5.252529E-3,3.3546984E-3,3.70717E-3,0E0,2.031785E-2,0E0,0E0,1.0409767E-3,3.7218034E-3,6.673985E-3,0E0,0E0,0E0,0E0,0E0,0E0,0E0,0E0,0E0,0E0,0E0,0E0,0E0,0E0,0E0,0E0,0E0,0E0,0E0,0E0,0E0,0E0],"parents":[2147483647,0,0,1,1,2,2,3,3,4,4,5,5,6,6,7,7,8,8,9,9,10,10,11,11,12,12,13,13,14,14,15,15,17,17,18,18,19,19,20,20,21,21,23,23,26,26,27,27,28,28],"right_children":[2,4,6,8,10,12,14,16,18,20,22,24,26,28,30,32,-1,34,36,38,40,42,-1,44,-1,-1,46,48,50,-1,-1,-1,-1,-1,-1,-1,-1,-1,-1,-1,-1,-1,-1,-1,-1,-1,-1,-1,-1,-1,-1],"split_conditions":[2.05E1,1.763889E1,1E0,2.019E3,2.0055555E1,2.469136E-3,1.9222221E1,2.0055555E1,4E0,3E0,9.852217E-3,1.6155089E-3,2.4976584E-3,4E0,2.022E3,1.2548772E-2,7.7593654E-2,1E0,5.1308365E-4,5E0,2.022E3,5E0,-1.5433038E-2,1.3341544E-3,-3.078106E-2,6.887974E-2,3.7807184E-3,2.2933332E1,2.021E3,-4.237295E-2,-1.2233848E-2,-1.9442405E-3,1.6094942E-2,1.0954005E-4,5.0214745E-2,6.2415276E-2,-1.1799024E-2,-9.0889875E-3,1.2756158E-2,8.6555585E-2,2.280128E-2,1.8826865E-2,-1.8914402E-3,-3.92883E-4,2.1202046E-2,-1.8056057E-3,3.940328E-3,-7.302727E-3,-1.7820075E-2,-5.9585725E-3,8.392048E-3],"split_indices":[4,5,1,0,5,6,5,4,2,7,6,6,6,7,0,6,0,15,6,1,0,2,0,6,0,0,6,4,0,0,0,0,0,0,0,0,0,0,0,0,0,0,0,0,0,0,0,0,0,0,0],"split_type":[0,0,0,0,0,0,0,0,0,0,0,0,0,0,0,0,0,0,0,0,0,0,0,0,0,0,0,0,0,0,0,0,0,0,0,0,0,0,0,0,0,0,0,0,0,0,0,0,0,0,0],"sum_hessian":[4.2E2,1.75E2,2.45E2,1.64E2,1.1E1,2.13E2,3.2E1,8.2E1,8.2E1,6E0,5E0,2.02E2,1.1E1,2.7E1,5E0,8.1E1,1E0,2.6E1,5.6E1,2E0,4E0,2E0,3E0,2.01E2,1E0,1E0,1E1,1.7E1,1E1,3E0,2E0,4.2E1,3.9E1,2.5E1,1E0,1E0,5.5E1,1E0,1E0,3E0,1E0,1E0,1E0,1.98E2,3E0,4E0,6E0,1.2E1,5E0,6E0,4E0],"tree_param":{"num_deleted":"0","num_feature":"28","num_nodes":"51","size_leaf_vector":"1"}},{"base_weights":[-3.6990535E-3,1.7469333E-4,-4.3991014E-2,-2.3489464E-3,2.7440649E-2,-3.2206103E-2,-6.670169E-2,6.869502E-5,-4.256176E-2,1.1538178E-1,-1.9930448E-2,2.9074367E-2,-4.6376005E-2,-2.3530987E-3,7.465307E-2,1.660633E-2,-7.8460336E-2,1.0318724E-1,2.6369683E-2,-1.1010396E-1,5.687501E-2,-1.8057883E-2,6.8938024E-2,-6.0080346E-2,1.3886642E-2,3.153559E-4,-2.0676063E-2,-7.1073044E-3,4.324929E-2,3.302572E-2,-3.7423205E-3,-2.8279474E-2,1.1250973E-4,5.47584E-2,-4.789831E-3,-5.5996623E-2,1.133574E-3,2.6344748E-2,-1.2015868E-3,1.6066074E-2,-1.793387E-2,2.106151E-3,2.617111E-2,2.3923875E-3,-2.0082455E-2,-7.969595E-3,1.895811E-2],"categories":[],"categories_nodes":[],"categories_segments":[],"categories_sizes":[],"default_left":[0,0,0,0,0,0,0,0,0,0,0,0,0,0,0,0,0,0,0,0,0,0,0,0,0,0,0,0,0,0,0,0,0,0,0,0,0,0,0,0,0,0,0,0,0,0,0],"id":28,"left_children":[1,3,5,7,9,11,-1,13,15,17,19,21,23,25,27,29,31,-1,33,35,37,39,41,43,45,-1,-1,-1,-1,-1,-1,-1,-1,-1,-1,-1,-1,-1,-1,-1,-1,-1,-1,-1,-1,-1,-1],"loss_changes":[6.228394E-2,2.5179906E-2,6.640284E-2,3.257168E-2,1.3144152E-1,3.087185E-2,0E0,5.743473E-2,4.165989E-2,2.1473598E-1,1.5170431E-1,1.4396922E-2,2.3958389E-2,6.9869384E-2,7.177557E-2,2.3120847E-2,1.4986873E-2,0E0,6.241402E-2,8.7884024E-2,2.2955962E-2,1.5152412E-2,3.9196685E-3,1.1273377E-2,1.3646163E-2,0E0,0E0,0E0,0E0,0E0,0E0,0E0,0E0,0E0,0E0,0E0,0E0,0E0,0E0,0E0,0E0,0E0,0E0,0E0,0E0,0E0,0E0],"parents":[2147483647,0,0,1,1,2,2,3,3,4,4,5,5,7,7,8,8,9,9,10,10,11,11,12,12,13,13,14,14,15,15,16,16,18,18,19,19,20,20,21,21,22,22,23,23,24,24],"right_children":[2,4,6,8,10,12,-1,14,16,18,20,22,24,26,28,30,32,-1,34,36,38,40,42,44,46,-1,-1,-1,-1,-1,-1,-1,-1,-1,-1,-1,-1,-1,-1,-1,-1,-1,-1,-1,-1,-1,-1],"split_conditions":[9E0,7E0,6E0,6.6118315E-2,2.0672843E-2,2E0,-6.670169E-2,3.6637932E-2,1.0861111E1,1.5166667E1,4.2487685E-2,1.1121212E1,1.5472222E1,6E0,1.3861111E1,9.0088375E-2,6E0,1.0318724E-1,2.6E1,4.0555553E0,4E0,9E0,1.1E1,1.0722222E1,5.702067E-3,3.153559E-4,-2.0676063E-2,-7.1073044E-3,4.324929E-2,3.302572E-2,-3.7423205E-3,-2.8279474E-2,1.1250973E-4,5.47584E-2,-4.789831E-3,-5.5996623E-2,1.133574E-3,2.6344748E-2,-1.2015868E-3,1.6066074E-2,-1.793387E-2,2.106151E-3,2.617111E-2,2.3923875E-3,-2.0082455E-2,-7.969595E-3,1.895811E-2],"split_indices":[2,2,7,6,6,7,0,6,4,4,6,4,4,2,4,6,7,0,3,5,7,4,2,4,6,0,0,0,0,0,0,0,0,0,0,0,0,0,0,0,0,0,0,0,0,0,0],"split_type":[0,0,0,0,0,0,0,0,0,0,0,0,0,0,0,0,0,0,0,0,0,0,0,0,0,0,0,0,0,0,0,0,0,0,0,0,0,0,0,0,0,0,0,0,0,0,0],"sum_hessian":[3.98E2,3.64E2,3.4E1,3.34E2,3E1,3.3E1,1E0,3.16E2,1.8E1,1E1,2E1,6E0,2.7E1,3.07E2,9E0,7E0,1.1E1,2E0,8E0,9E0,1.1E1,3E0,3E0,2.2E1,5E0,2.93E2,1.4E1,4E0,5E0,1E0,6E0,9E0,2E0,1E0,7E0,5E0,4E0,7E0,4E0,1E0,2E0,1E0,2E0,2E0,2E1,3E0,2E0],"tree_param":{"num_deleted":"0","num_feature":"28","num_nodes":"47","size_leaf_vector":"1"}},{"base_weights":[2.62164E-3,3.0982018E-2,5.6986326E-5,1.3969413E-2,1.550842E-1,2.3234077E-3,-7.556425E-2,-1.296245E-2,7.182257E-2,8.7880865E-2,1.148812E-2,4.020627E-2,-1.2913987E-3,-1.0869773E-1,9.59377E-3,-2.4968423E-2,2.1419454E-2,9.317606E-2,1.6498327E-2,1.2161351E-2,-6.9916965E-3,8.467773E-2,2.329298E-2,3.1122616E-3,-5.391628E-2,-5.289109E-2,-5.6778494E-2,7.7573718E-3,-5.8797956E-3,1.306285E-3,-1.6417967E-2,3.156978E-2,3.1255246E-3,6.651354E-3,-7.8034405E-5,3.4931113E-3,3.8441494E-2,-1.5672059E-4,3.0686084E-2,6.162936E-3,-2.8363315E-2,6.4174803E-3,-4.262374E-2],"categories":[],"categories_nodes":[],"categories_segments":[],"categories_sizes":[],"default_left":[0,0,0,0,0,0,0,0,0,0,0,0,0,0,0,0,0,0,0,0,0,0,0,0,0,0,0,0,0,0,0,0,0,0,0,0,0,0,0,0,0,0,0],"id":29,"left_children":[1,3,5,7,9,11,13,15,17,-1,19,21,23,25,27,29,-1,31,33,-1,-1,-1,35,37,39,-1,41,-1,-1,-1,-1,-1,-1,-1,-1,-1,-1,-1,-1,-1,-1,-1,-1],"loss_changes":[2.98194E-2,6.961781E-2,6.4789444E-2,4.923189E-2,7.581474E-2,5.030861E-2,3.208022E-2,2.4064988E-2,1.0276407E-2,0E0,3.977008E-3,1.2443045E-1,7.803314E-2,1.8070117E-2,2.405999E-3,1.7690076E-2,0E0,5.8880337E-3,3.8603973E-4,0E0,0E0,0E0,3.637053E-2,1.12158544E-1,8.059599E-2,0E0,4.304705E-2,0E0,0E0,0E0,0E0,0E0,0E0,0E0,0E0,0E0,0E0,0E0,0E0,0E0,0E0,0E0,0E0],"parents":[2147483647,0,0,1,1,2,2,3,3,4,4,5,5,6,6,7,7,8,8,10,10,11,11,12,12,13,13,14,14,15,15,17,17,18,18,22,22,23,23,24,24,26,26],"right_children":[2,4,6,8,10,12,14,16,18,-1,20,22,24,26,28,30,-1,32,34,-1,-1,-1,36,38,40,-1,42,-1,-1,-1,-1,-1,-1,-1,-1,-1,-1,-1,-1,-1,-1,-1,-1],"split_conditions":[1.2472222E1,1.2222222E1,1E1,1.1E1,9E0,1.5166667E1,2.023E3,4.138889E0,1.4E1,8.7880865E-2,2.018E3,2.015E3,4E0,5.0537635E-2,2.024E3,9.5029936E-5,2.1419454E-2,2.02E3,1.6E1,1.2161351E-2,-6.9916965E-3,8.467773E-2,1.5083333E1,1.7658537E-2,1.5888889E1,-5.289109E-2,2.02E3,7.7573718E-3,-5.8797956E-3,1.306285E-3,-1.6417967E-2,3.156978E-2,3.1255246E-3,6.651354E-3,-7.8034405E-5,3.4931113E-3,3.8441494E-2,-1.5672059E-4,3.0686084E-2,6.162936E-3,-2.8363315E-2,6.4174803E-3,-4.262374E-2],"split_indices":[4,4,1,1,1,4,0,5,1,0,0,0,1,6,0,6,0,0,1,0,0,0,4,6,4,0,0,0,0,0,0,0,0,0,0,0,0,0,0,0,0,0,0],"split_type":[0,0,0,0,0,0,0,0,0,0,0,0,0,0,0,0,0,0,0,0,0,0,0,0,0,0,0,0,0,0,0,0,0,0,0,0,0,0,0,0,0,0,0],"sum_hessian":[4.09E2,3.3E1,3.76E2,3E1,3E0,3.66E2,1E1,2.1E1,9E0,1E0,2E0,3.1E1,3.35E2,7E0,3E0,1.9E1,2E0,6E0,3E0,1E0,1E0,1E0,3E1,3.1E2,2.5E1,2E0,5E0,2E0,1E0,1E1,9E0,5E0,1E0,2E0,1E0,2.8E1,2E0,3E2,1E1,9E0,1.6E1,3E0,2E0],"tree_param":{"num_deleted":"0","num_feature":"28","num_nodes":"43","size_leaf_vector":"1"}},{"base_weights":[2.1526667E-3,-1.3875632E-3,1.5950795E-2,1.0089109E-4,-4.429128E-2,7.065415E-2,-1.1264023E-3,-1.2221648E-3,5.905697E-2,8.077574E-3,-7.5370274E-2,3.349E-3,1.352801E-1,-3.517516E-2,2.9063253E-2,-2.6254165E-3,3.741458E-2,1.5857783E-1,-5.5228133E-2,2.1794677E-2,-7.018626E-3,-1.1769235E-2,-3.6038626E-2,-1.5616619E-2,1.0338263E-1,-1.11454874E-1,-3.797224E-3,4.020079E-2,-5.244194E-2,-2.5327806E-4,-3.2477178E-2,-1.1898284E-2,1.7684774E-2,5.5204026E-2,1.2340666E-2,-3.3363517E-2,1.6908396E-2,7.718229E-3,1.4994622E-3,6.1419015E-3,-8.802295E-3,3.5522988E-3,-1.1486463E-2,5.302918E-2,-6.5069906E-3,-4.3750122E-2,2.4536394E-2,5.0679587E-2,-8.4876E-3,4.6236265E-2,-2.3378273E-4],"categories":[],"categories_nodes":[],"categories_segments":[],"categories_sizes":[],"default_left":[0,0,0,0,0,0,0,0,0,0,0,0,0,0,0,0,0,0,0,0,0,0,0,0,0,0,0,0,0,0,0,0,0,0,0,0,0,0,0,0,0,0,0,0,0,0,0,0,0,0,0],"id":30,"left_children":[1,3,5,7,9,11,13,15,17,19,21,23,-1,25,27,29,31,33,35,37,-1,39,-1,41,43,45,47,49,-1,-1,-1,-1,-1,-1,-1,-1,-1,-1,-1,-1,-1,-1,-1,-1,-1,-1,-1,-1,-1,-1,-1],"loss_changes":[2.0098886E-2,2.095062E-2,7.85507E-2,2.4876872E-2,1.8512098E-2,5.1038516E-1,6.783713E-2,1.7013958E-2,8.837422E-2,2.668487E-3,1.8512972E-2,3.5764087E-2,0E0,7.377527E-2,8.649857E-2,5.672894E-2,2.0595735E-2,4.379362E-3,3.125675E-2,1.3563433E-4,0E0,2.866908E-3,0E0,1.0413494E-2,3.1367972E-2,7.171866E-2,1.0209155E-1,1.588475E-1,0E0,0E0,0E0,0E0,0E0,0E0,0E0,0E0,0E0,0E0,0E0,0E0,0E0,0E0,0E0,0E0,0E0,0E0,0E0,0E0,0E0,0E0,0E0],"parents":[2147483647,0,0,1,1,2,2,3,3,4,4,5,5,6,6,7,7,8,8,9,9,10,10,11,11,13,13,14,14,15,15,16,16,17,17,18,18,19,19,21,21,23,23,24,24,25,25,26,26,27,27],"right_children":[2,4,6,8,10,12,14,16,18,20,22,24,-1,26,28,30,32,34,36,38,-1,40,-1,42,44,46,48,50,-1,-1,-1,-1,-1,-1,-1,-1,-1,-1,-1,-1,-1,-1,-1,-1,-1,-1,-1,-1,-1,-1,-1],"split_conditions":[4E0,9.402174E-2,1.2195122E-3,1.1E1,9.472222E0,9.486766E-4,1.6276041E-2,6.0423918E-2,7E0,1.5E1,3.1E1,5E0,1.352801E-1,1.9583334E1,8E0,4.6153847E-2,5E0,5.204761E-2,1E1,1.3E1,-7.018626E-3,1.1722222E1,-3.6038626E-2,5E0,2E0,5E0,1.9722221E1,3.1917077E-2,-5.244194E-2,-2.5327806E-4,-3.2477178E-2,-1.1898284E-2,1.7684774E-2,5.5204026E-2,1.2340666E-2,-3.3363517E-2,1.6908396E-2,7.718229E-3,1.4994622E-3,6.1419015E-3,-8.802295E-3,3.5522988E-3,-1.1486463E-2,5.302918E-2,-6.5069906E-3,-4.3750122E-2,2.4536394E-2,5.0679587E-2,-8.4876E-3,4.6236265E-2,-2.3378273E-4],"split_indices":[7,6,6,1,4,6,6,6,2,1,3,2,0,4,7,6,2,6,2,1,0,4,0,7,1,1,4,6,0,0,0,0,0,0,0,0,0,0,0,0,0,0,0,0,0,0,0,0,0,0,0],"split_type":[0,0,0,0,0,0,0,0,0,0,0,0,0,0,0,0,0,0,0,0,0,0,0,0,0,0,0,0,0,0,0,0,0,0,0,0,0,0,0,0,0,0,0,0,0,0,0,0,0,0,0],"sum_hessian":[4.1E2,3.27E2,8.3E1,3.17E2,1E1,1.9E1,6.4E1,3.11E2,6E0,4E0,6E0,1.7E1,2E0,3E1,3.4E1,3.01E2,1E1,3E0,3E0,3E0,1E0,3E0,3E0,1.5E1,2E0,8E0,2.2E1,3.3E1,1E0,2.97E2,4E0,2E0,8E0,2E0,1E0,2E0,1E0,2E0,1E0,1E0,2E0,7E0,8E0,1E0,1E0,7E0,1E0,2E0,2E1,8E0,2.5E1],"tree_param":{"num_deleted":"0","num_feature":"28","num_nodes":"51","size_leaf_vector":"1"}},{"base_weights":[6.22572E-4,2.662004E-3,-2.6896065E-2,-1.7627131E-4,4.2513803E-2,-3.4452204E-2,-1.233166E-2,3.4844107E-3,-3.2820832E-2,1.35216E-1,7.942345E-3,1.8973779E-2,-2.126504E-2,5.3048745E-2,-2.5759297E-3,-7.961006E-2,-9.963468E-3,1.1245491E-2,2.2538249E-1,-2.2033297E-2,6.6759005E-2,-3.20199E-2,4.051423E-2,-2.5662144E-3,4.5139242E-2,9.858134E-4,-1.6339872E-2,-3.089322E-2,-7.890091E-3,1.7319653E-2,-1.2977329E-2,1.30724525E-2,-4.2167716E-3,8.067573E-2,1.4215914E-2,-1.3696989E-2,2.3941338E-2,2.4123421E-2,-2.2732974E-3,7.332144E-3,-1.4022711E-2,1.8622257E-2,3.7908556E-3],"categories":[],"categories_nodes":[],"categories_segments":[],"categories_sizes":[],"default_left":[0,0,0,0,0,0,0,0,0,0,0,0,0,0,0,0,0,0,0,0,0,0,0,0,0,0,0,0,0,0,0,0,0,0,0,0,0,0,0,0,0,0,0],"id":31,"left_children":[1,3,5,7,9,-1,11,13,15,17,19,-1,21,23,25,27,29,31,33,35,37,39,41,-1,-1,-1,-1,-1,-1,-1,-1,-1,-1,-1,-1,-1,-1,-1,-1,-1,-1,-1,-1],"loss_changes":[2.3586877E-2,4.4233654E-2,3.572879E-2,4.3851856E-2,8.225215E-2,0E0,1.8899176E-2,9.926097E-2,3.877751E-2,7.5711384E-2,3.6732264E-2,0E0,1.724352E-2,2.1732524E-1,8.9911975E-2,1.2240149E-2,6.109821E-2,3.8843944E-3,1.8254265E-2,3.732406E-2,7.713439E-3,1.8598365E-2,1.6198172E-3,0E0,0E0,0E0,0E0,0E0,0E0,0E0,0E0,0E0,0E0,0E0,0E0,0E0,0E0,0E0,0E0,0E0,0E0,0E0,0E0],"parents":[2147483647,0,0,1,1,2,2,3,3,4,4,6,6,7,7,8,8,9,9,10,10,12,12,13,13,14,14,15,15,16,16,17,17,18,18,19,19,20,20,21,21,22,22],"right_children":[2,4,6,8,10,-1,12,14,16,18,20,-1,22,24,26,28,30,32,34,36,38,40,42,-1,-1,-1,-1,-1,-1,-1,-1,-1,-1,-1,-1,-1,-1,-1,-1,-1,-1,-1,-1],"split_conditions":[6.7067385E-2,8E0,7.2972685E-2,8E0,3.3118278E-2,-3.4452204E-2,7.866709E-2,1.75E1,9E0,2.5419664E-2,5.2171435E-2,1.8973779E-2,1.4E1,2E0,4E0,1.6555555E1,1.2807134E-2,8E0,2.019E3,2.024E3,2.023E3,6E0,1.4555555E1,-2.5662144E-3,4.5139242E-2,9.858134E-4,-1.6339872E-2,-3.089322E-2,-7.890091E-3,1.7319653E-2,-1.2977329E-2,1.30724525E-2,-4.2167716E-3,8.067573E-2,1.4215914E-2,-1.3696989E-2,2.3941338E-2,2.4123421E-2,-2.2732974E-3,7.332144E-3,-1.4022711E-2,1.8622257E-2,3.7908556E-3],"split_indices":[6,1,6,2,6,0,6,4,2,6,6,0,4,7,2,4,6,2,0,0,0,2,4,0,0,0,0,0,0,0,0,0,0,0,0,0,0,0,0,0,0,0,0],"split_type":[0,0,0,0,0,0,0,0,0,0,0,0,0,0,0,0,0,0,0,0,0,0,0,0,0,0,0,0,0,0,0,0,0,0,0,0,0,0,0,0,0,0,0],"sum_hessian":[4.18E2,3.9E2,2.8E1,3.65E2,2.5E1,3E0,2.5E1,3.29E2,3.6E1,6E0,1.9E1,2E0,2.3E1,3.5E1,2.94E2,1.1E1,2.5E1,3E0,3E0,1.3E1,6E0,2E1,3E0,2.2E1,1.3E1,2.65E2,2.9E1,7E0,4E0,8E0,1.7E1,1E0,2E0,2E0,1E0,1.1E1,2E0,5E0,1E0,4E0,1.6E1,1E0,2E0],"tree_param":{"num_deleted":"0","num_feature":"28","num_nodes":"43","size_leaf_vector":"1"}},{"base_weights":[-2.0197076E-3,1.7436635E-3,-2.2536848E-2,7.351371E-4,3.4840334E-2,-1.8277951E-3,-1.3211206E-1,-5.3794207E-3,1.074795E-2,1.1098445E-1,-8.301044E-3,-3.219812E-2,-2.2558635E-1,-1.8342306E-3,-4.3683745E-2,4.4711637E-3,5.220711E-2,-5.718915E-3,5.566192E-2,2.8406413E-2,-1.7717257E-2,-9.160425E-2,5.7742756E-2,-7.867468E-2,-1.1840415E-2,-2.4395967E-4,-2.0174865E-2,-1.4656935E-2,6.6378326E-3,3.4527767E-3,-1.0111419E-2,3.481232E-2,-1.224231E-3,-1.2528986E-2,1.18799135E-2,1.3213916E-4,-1.7477049E-2,-3.8769156E-2,3.1911852E-3,2.6621211E-2,-6.3697103E-4],"categories":[],"categories_nodes":[],"categories_segments":[],"categories_sizes":[],"default_left":[0,0,0,0,0,0,0,0,0,0,0,0,0,0,0,0,0,0,0,0,0,0,0,0,0,0,0,0,0,0,0,0,0,0,0,0,0,0,0,0,0],"id":32,"left_children":[1,3,5,7,-1,9,11,13,15,17,19,21,23,25,27,29,31,-1,-1,33,35,37,39,-1,-1,-1,-1,-1,-1,-1,-1,-1,-1,-1,-1,-1,-1,-1,-1,-1,-1],"loss_changes":[3.1388026E-2,3.9600566E-2,1.4271805E-1,2.09964E-2,0E0,4.035542E-2,8.6130396E-2,2.8844444E-2,3.359651E-2,3.2624133E-2,1.8476836E-2,3.7347715E-2,2.3767412E-2,1.303637E-2,7.2084703E-3,3.1018052E-2,6.1555866E-2,0E0,0E0,1.0293547E-2,3.094212E-2,1.6762532E-2,5.7549803E-3,0E0,0E0,0E0,0E0,0E0,0E0,0E0,0E0,0E0,0E0,0E0,0E0,0E0,0E0,0E0,0E0,0E0,0E0],"parents":[2147483647,0,0,1,1,2,2,3,3,5,5,6,6,7,7,8,8,9,9,10,10,11,11,12,12,13,13,14,14,15,15,16,16,19,19,20,20,21,21,22,22],"right_children":[2,4,6,8,-1,10,12,14,16,18,20,22,24,26,28,30,32,-1,-1,34,36,38,40,-1,-1,-1,-1,-1,-1,-1,-1,-1,-1,-1,-1,-1,-1,-1,-1,-1,-1],"split_conditions":[2.9297797E-2,8E0,1.5638889E1,2E1,3.4840334E-2,3.1917077E-2,2.8E1,1E0,5E0,7E0,1.0722222E1,2.3E1,8E0,6E0,7E0,1.2819198E-2,1.925E1,-5.718915E-3,5.566192E-2,2E0,1.1E1,5E0,6E0,-7.867468E-2,-1.1840415E-2,-2.4395967E-4,-2.0174865E-2,-1.4656935E-2,6.6378326E-3,3.4527767E-3,-1.0111419E-2,3.481232E-2,-1.224231E-3,-1.2528986E-2,1.18799135E-2,1.3213916E-4,-1.7477049E-2,-3.8769156E-2,3.1911852E-3,2.6621211E-2,-6.3697103E-4],"split_indices":[6,1,4,3,0,6,3,1,7,1,4,3,1,7,7,6,4,0,0,3,1,2,1,0,0,0,0,0,0,0,0,0,0,0,0,0,0,0,0,0,0],"split_type":[0,0,0,0,0,0,0,0,0,0,0,0,0,0,0,0,0,0,0,0,0,0,0,0,0,0,0,0,0,0,0,0,0,0,0,0,0,0,0,0,0],"sum_hessian":[4.05E2,3.43E2,6.2E1,3.41E2,2E0,5.3E1,9E0,2.12E2,1.29E2,2E0,5.1E1,5E0,4E0,1.95E2,1.7E1,1.13E2,1.6E1,1E0,1E0,1E1,4.1E1,3E0,2E0,3E0,1E0,1.93E2,2E0,1.6E1,1E0,9.6E1,1.7E1,7E0,9E0,1E0,9E0,2.9E1,1.2E1,2E0,1E0,1E0,1E0],"tree_param":{"num_deleted":"0","num_feature":"28","num_nodes":"41","size_leaf_vector":"1"}},{"base_weights":[6.518106E-4,-3.5987606E-3,6.2837377E-3,-1.5480899E-2,-1.5221585E-3,1.0627845E-1,9.529369E-4,-6.8929824E-3,-4.36035E-2,-2.5421458E-3,9.0456065E-3,-1.2214002E-2,1.0420041E-1,1.6713263E-2,-9.209514E-3,-6.7836954E-4,-3.534453E-2,-1.3921807E-2,-3.5978777E-3,-2.1590092E-3,-1.0955888E-2,2.0768093E-2,-2.409192E-3,1.0517672E-2,-3.1892173E-2,5.1906176E-2,-4.136414E-3,8.506097E-3,-3.262567E-2,-9.490858E-4,5.3318753E-3,-1.3463221E-2,4.180421E-4,-1.7038749E-4,-2.9096259E-3,6.723669E-4,6.8411403E-3,1.1879364E-3,-1.0670499E-3,5.2097915E-3,7.3387433E-4,-1.189997E-2,-1.2853515E-3,-8.796623E-3,2.3730144E-2,1.1971444E-2,-8.032117E-3,9.845678E-3,-7.364961E-3,-2.8229596E-2,3.5524357E-3],"categories":[],"categories_nodes":[],"categories_segments":[],"categories_sizes":[],"default_left":[0,0,0,0,0,0,0,0,0,0,0,0,0,0,0,0,0,0,0,0,0,0,0,0,0,0,0,0,0,0,0,0,0,0,0,0,0,0,0,0,0,0,0,0,0,0,0,0,0,0,0],"id":33,"left_children":[1,3,5,7,9,11,13,15,17,19,21,23,-1,25,27,29,31,-1,-1,33,-1,35,37,39,41,43,45,47,49,-1,-1,-1,-1,-1,-1,-1,-1,-1,-1,-1,-1,-1,-1,-1,-1,-1,-1,-1,-1,-1,-1],"loss_changes":[9.909383E-3,5.799611E-3,9.4781965E-2,8.1524495E-3,2.2003502E-3,2.6131243E-1,2.7381722E-2,4.926853E-3,1.5217159E-4,2.3294855E-3,2.4670511E-3,3.466656E-3,0E0,4.937669E-2,4.3419994E-2,1.156772E-3,1.8136287E-3,0E0,0E0,2.201777E-3,0E0,2.883291E-4,8.717732E-5,1.7862068E-4,6.8857986E-4,5.7543017E-2,4.3938313E-2,4.9026735E-2,1.2412296E-1,0E0,0E0,0E0,0E0,0E0,0E0,0E0,0E0,0E0,0E0,0E0,0E0,0E0,0E0,0E0,0E0,0E0,0E0,0E0,0E0,0E0,0E0],"parents":[2147483647,0,0,1,1,2,2,3,3,4,4,5,5,6,6,7,7,8,8,9,9,10,10,11,11,13,13,14,14,15,15,16,16,19,19,21,21,22,22,23,23,24,24,25,25,26,26,27,27,28,28],"right_children":[2,4,6,8,10,12,14,16,18,20,22,24,-1,26,28,30,32,-1,-1,34,-1,36,38,40,42,44,46,48,50,-1,-1,-1,-1,-1,-1,-1,-1,-1,-1,-1,-1,-1,-1,-1,-1,-1,-1,-1,-1,-1,-1],"split_conditions":[9.782609E-4,2.025E1,1.2195122E-3,2.4257126E-4,4.7254513E-4,4E0,2.7E1,1.9166666E1,2.018E3,6E0,2.3944445E1,3E0,1.0420041E-1,8.833333E0,2.019E3,3E1,2.022E3,-1.3921807E-2,-3.5978777E-3,1.9E1,-1.0955888E-2,5E0,2.4857143E1,2.017E3,2.018E3,1.5083333E1,1.7416666E1,3.1917077E-2,3.263547E-2,-9.490858E-4,5.3318753E-3,-1.3463221E-2,4.180421E-4,-1.7038749E-4,-2.9096259E-3,6.723669E-4,6.8411403E-3,1.1879364E-3,-1.0670499E-3,5.2097915E-3,7.3387433E-4,-1.189997E-2,-1.2853515E-3,-8.796623E-3,2.3730144E-2,1.1971444E-2,-8.032117E-3,9.845678E-3,-7.364961E-3,-2.8229596E-2,3.5524357E-3],"split_indices":[6,4,6,6,6,7,3,4,0,7,4,7,0,5,0,3,0,0,0,3,0,3,4,0,0,4,4,6,6,0,0,0,0,0,0,0,0,0,0,0,0,0,0,0,0,0,0,0,0,0,0],"split_type":[0,0,0,0,0,0,0,0,0,0,0,0,0,0,0,0,0,0,0,0,0,0,0,0,0,0,0,0,0,0,0,0,0,0,0,0,0,0,0,0,0,0,0,0,0,0,0,0,0,0,0],"sum_hessian":[4.12E2,2.35E2,1.77E2,3.4E1,2.01E2,8E0,1.69E2,2.7E1,7E0,1.84E2,1.7E1,6E0,2E0,6.6E1,1.03E2,2.3E1,4E0,6E0,1E0,1.83E2,1E0,8E0,9E0,3E0,3E0,2.4E1,4.2E1,5.9E1,4.4E1,2.1E1,2E0,3E0,1E0,1.52E2,3.1E1,1E0,7E0,1E0,8E0,1E0,2E0,2E0,1E0,6E0,1.8E1,1.4E1,2.8E1,3.4E1,2.5E1,1.8E1,2.6E1],"tree_param":{"num_deleted":"0","num_feature":"28","num_nodes":"51","size_leaf_vector":"1"}},{"base_weights":[2.6941742E-3,-4.0569818E-3,1.3043083E-2,-5.174555E-4,-7.067494E-2,6.163957E-2,6.609896E-3,-2.6037002E-3,3.7078068E-2,-8.56942E-2,1.4180545E-2,9.371193E-2,9.835137E-3,-3.8546342E-2,1.3704552E-2,-9.2462933E-4,-7.327556E-2,-3.1574894E-2,1.1099351E-1,-9.687517E-2,3.9173127E-3,9.6098625E-4,1.4657518E-1,-1.4865105E-2,2.7628303E-2,-9.43708E-2,2.1132747E-2,2.710962E-2,-1.0930329E-2,-5.8879954E-4,3.2715138E-2,-2.7395047E-2,-1.6658084E-4,-1.9988714E-2,3.4118947E-3,4.363323E-2,8.418471E-3,-3.2482088E-2,-1.0256275E-2,-1.0015952E-4,9.2105876E-4,1.643905E-2,5.1698145E-2,-5.625262E-3,-4.8117043E-4,1.8417747E-3,1.7037679E-2,-3.9521307E-2,-1.6158164E-3,-1.0870248E-3,3.6590733E-2,-1.3945233E-3,1.8198436E-2,-2.2394942E-2,3.9918143E-3],"categories":[],"categories_nodes":[],"categories_segments":[],"categories_sizes":[],"default_left":[0,0,0,0,0,0,0,0,0,0,0,0,0,0,0,0,0,0,0,0,0,0,0,0,0,0,0,0,0,0,0,0,0,0,0,0,0,0,0,0,0,0,0,0,0,0,0,0,0,0,0,0,0,0,0],"id":34,"left_children":[1,3,5,7,9,11,13,15,17,19,-1,21,23,25,27,29,31,33,35,37,-1,39,41,43,45,47,49,51,53,-1,-1,-1,-1,-1,-1,-1,-1,-1,-1,-1,-1,-1,-1,-1,-1,-1,-1,-1,-1,-1,-1,-1,-1,-1,-1],"loss_changes":[2.7440818E-2,5.6082886E-2,4.805027E-2,1.7900934E-2,2.5307715E-2,2.898515E-2,4.4739038E-2,2.5563467E-2,6.439878E-2,1.3410516E-2,0E0,5.379343E-2,3.9266613E-3,6.529381E-2,3.9924182E-2,2.441554E-2,6.5091215E-3,1.1296282E-2,1.3060935E-2,3.4438E-3,0E0,1.4680593E-5,7.101327E-3,1.7604529E-4,2.7848678E-3,3.2541282E-2,2.5405157E-2,8.339412E-2,6.739945E-2,0E0,0E0,0E0,0E0,0E0,0E0,0E0,0E0,0E0,0E0,0E0,0E0,0E0,0E0,0E0,0E0,0E0,0E0,0E0,0E0,0E0,0E0,0E0,0E0,0E0,0E0],"parents":[2147483647,0,0,1,1,2,2,3,3,4,4,5,5,6,6,7,7,8,8,9,9,11,11,12,12,13,13,14,14,15,15,16,16,17,17,18,18,19,19,21,21,22,22,23,23,24,24,25,25,26,26,27,27,28,28],"right_children":[2,4,6,8,10,12,14,16,18,20,-1,22,24,26,28,30,32,34,36,38,-1,40,42,44,46,48,50,52,54,-1,-1,-1,-1,-1,-1,-1,-1,-1,-1,-1,-1,-1,-1,-1,-1,-1,-1,-1,-1,-1,-1,-1,-1,-1,-1],"split_conditions":[2.4E1,3E0,2.7E1,5E0,9E0,5E0,2.9E1,5E0,1.8E1,4.297505E-2,1.4180545E-2,2.375E0,2.3586957E-2,8E0,7E0,2E0,2E0,1.4E1,1.3429257E-3,7E0,3.9173127E-3,1E0,5E0,6E0,1.475E1,6.710141E-2,1E1,1.1341083E-3,1.6276041E-2,-5.8879954E-4,3.2715138E-2,-2.7395047E-2,-1.6658084E-4,-1.9988714E-2,3.4118947E-3,4.363323E-2,8.418471E-3,-3.2482088E-2,-1.0256275E-2,-1.0015952E-4,9.2105876E-4,1.643905E-2,5.1698145E-2,-5.625262E-3,-4.8117043E-4,1.8417747E-3,1.7037679E-2,-3.9521307E-2,-1.6158164E-3,-1.0870248E-3,3.6590733E-2,-1.3945233E-3,1.8198436E-2,-2.2394942E-2,3.9918143E-3],"split_indices":[3,1,3,7,2,1,3,2,3,6,0,5,6,2,2,1,1,3,6,2,0,1,2,2,4,6,1,6,6,0,0,0,0,0,0,0,0,0,0,0,0,0,0,0,0,0,0,0,0,0,0,0,0,0,0],"split_type":[0,0,0,0,0,0,0,0,0,0,0,0,0,0,0,0,0,0,0,0,0,0,0,0,0,0,0,0,0,0,0,0,0,0,0,0,0,0,0,0,0,0,0,0,0,0,0,0,0,0,0,0,0,0,0],"sum_hessian":[3.91E2,2.37E2,1.54E2,2.26E2,1.1E1,1.7E1,1.37E2,2.15E2,1.1E1,1E1,1E0,1E1,7E0,1.8E1,1.19E2,2.11E2,4E0,6E0,5E0,9E0,1E0,4E0,6E0,3E0,4E0,9E0,9E0,7.7E1,4.2E1,2.1E2,1E0,3E0,1E0,3E0,3E0,3E0,2E0,7E0,2E0,3E0,1E0,2E0,4E0,2E0,1E0,3E0,1E0,6E0,3E0,8E0,1E0,4E1,3.7E1,1.1E1,3.1E1],"tree_param":{"num_deleted":"0","num_feature":"28","num_nodes":"55","size_leaf_vector":"1"}},{"base_weights":[1.824532E-3,-2.3796612E-3,8.045898E-3,-1.6713204E-2,8.663871E-5,6.0925186E-3,8.758799E-2,-8.922769E-3,-7.8753605E-2,2.5808424E-2,-1.6877044E-3,1.0968306E-2,-2.2040686E-2,7.0444845E-2,-3.97601E-2,1.2290734E-2,-1.8273842E-2,-2.7257957E-2,-6.365232E-3,-2.4572343E-2,6.6665545E-2,2.2883421E-4,-9.752862E-3,5.961307E-2,3.486555E-3,-1.475922E-2,-5.6578573E-2,-1.537233E-2,-2.5197158E-3,1.4193454E-3,6.124801E-3,-1.2674151E-2,-1.0940196E-3,1.2579919E-3,-1.9297294E-2,7.1483343E-3,5.4979485E-2,-3.171531E-4,1.5676524E-2,-3.2022484E-3,3.7884742E-3,3.66469E-2,-7.03571E-3,1.585103E-3,-3.2903474E-2,1.7991262E-3,-8.8770855E-3,-2.2215176E-2,-6.2438083E-4],"categories":[],"categories_nodes":[],"categories_segments":[],"categories_sizes":[],"default_left":[0,0,0,0,0,0,0,0,0,0,0,0,0,0,0,0,0,0,0,0,0,0,0,0,0,0,0,0,0,0,0,0,0,0,0,0,0,0,0,0,0,0,0,0,0,0,0,0,0],"id":35,"left_children":[1,3,5,7,9,11,13,15,17,19,21,23,25,-1,27,29,31,-1,-1,33,35,37,39,41,43,45,47,-1,-1,-1,-1,-1,-1,-1,-1,-1,-1,-1,-1,-1,-1,-1,-1,-1,-1,-1,-1,-1,-1],"loss_changes":[1.10307485E-2,8.909853E-3,2.5880262E-2,1.7180204E-2,9.90164E-3,2.3149392E-2,8.433321E-2,6.9691455E-3,8.5837394E-4,3.045591E-2,3.1400404E-3,5.183672E-2,5.452105E-3,0E0,6.4979214E-4,5.790689E-4,8.261789E-3,0E0,0E0,8.274168E-3,3.5592064E-2,1.1094788E-2,9.389641E-4,1.0157333E-1,2.6000861E-2,6.949895E-3,3.6545899E-3,0E0,0E0,0E0,0E0,0E0,0E0,0E0,0E0,0E0,0E0,0E0,0E0,0E0,0E0,0E0,0E0,0E0,0E0,0E0,0E0,0E0,0E0],"parents":[2147483647,0,0,1,1,2,2,3,3,4,4,5,5,6,6,7,7,8,8,9,9,10,10,11,11,12,12,14,14,15,15,16,16,19,19,20,20,21,21,22,22,23,23,24,24,25,25,26,26],"right_children":[2,4,6,8,10,12,14,16,18,20,22,24,26,-1,28,30,32,-1,-1,34,36,38,40,42,44,46,48,-1,-1,-1,-1,-1,-1,-1,-1,-1,-1,-1,-1,-1,-1,-1,-1,-1,-1,-1,-1,-1,-1],"split_conditions":[1E0,2.0833334E1,2.4857143E1,2E0,2.2555555E1,2.0722221E1,2.625E1,1.0722222E1,2.0055555E1,1E0,1.9E1,2E0,1.9222221E1,7.0444845E-2,2.7333334E1,2E0,1.6194445E1,-2.7257957E-2,-6.365232E-3,3E0,2.225E1,1.8E1,7E0,3.8333333E0,8E0,2.1E1,1.6E1,-1.537233E-2,-2.5197158E-3,1.4193454E-3,6.124801E-3,-1.2674151E-2,-1.0940196E-3,1.2579919E-3,-1.9297294E-2,7.1483343E-3,5.4979485E-2,-3.171531E-4,1.5676524E-2,-3.2022484E-3,3.7884742E-3,3.66469E-2,-7.03571E-3,1.585103E-3,-3.2903474E-2,1.7991262E-3,-8.8770855E-3,-2.2215176E-2,-6.2438083E-4],"split_indices":[1,4,4,7,4,4,4,4,4,7,3,1,5,0,4,3,4,0,0,3,4,3,7,5,7,3,3,0,0,0,0,0,0,0,0,0,0,0,0,0,0,0,0,0,0,0,0,0,0],"split_type":[0,0,0,0,0,0,0,0,0,0,0,0,0,0,0,0,0,0,0,0,0,0,0,0,0,0,0,0,0,0,0,0,0,0,0,0,0,0,0,0,0,0,0,0,0,0,0,0,0],"sum_hessian":[4.2E2,2.51E2,1.69E2,3.6E1,2.15E2,1.66E2,3E0,3.3E1,3E0,1.3E1,2.02E2,1.42E2,2.4E1,1E0,2E0,1E1,2.3E1,2E0,1E0,6E0,7E0,1.64E2,3.8E1,1.8E1,1.24E2,2.1E1,3E0,1E0,1E0,6E0,4E0,8E0,1.5E1,4E0,2E0,6E0,1E0,1.61E2,3E0,3.7E1,1E0,1E1,8E0,1.23E2,1E0,9E0,1.2E1,2E0,1E0],"tree_param":{"num_deleted":"0","num_feature":"28","num_nodes":"49","size_leaf_vector":"1"}},{"base_weights":[-1.5465544E-3,1.8951789E-3,-1.9790422E-2,-1.5628223E-3,2.4406161E-2,5.8438137E-2,-3.3406407E-2,2.576741E-4,-3.0098248E-2,5.5289093E-2,-8.880646E-3,1.0346313E-1,1.1177622E-2,1.4945153E-2,-7.2881706E-2,-1.2123615E-3,2.6603134E-2,-2.6337814E-2,-1.1547839E-3,1.01264656E-1,8.748118E-4,-5.0031673E-2,5.8768E-3,4.217391E-2,-6.7504765E-3,2.6483849E-2,-9.803027E-3,1.015019E-1,-7.579837E-4,-7.756677E-2,1.0150552E-2,3.780765E-4,-1.0728492E-2,5.5446304E-2,-3.5865232E-3,-7.5830454E-3,1.2748751E-2,6.423505E-2,1.8384276E-2,-2.966851E-2,5.6805764E-3,1.0042438E-2,-1.3981212E-2,1.0575582E-3,9.402665E-3,5.451344E-4,4.0237337E-2,-1.9707663E-2,3.6800283E-3,-1.0578146E-2,-2.9087067E-2],"categories":[],"categories_nodes":[],"categories_segments":[],"categories_sizes":[],"default_left":[0,0,0,0,0,0,0,0,0,0,0,0,0,0,0,0,0,0,0,0,0,0,0,0,0,0,0,0,0,0,0,0,0,0,0,0,0,0,0,0,0,0,0,0,0,0,0,0,0,0,0],"id":36,"left_children":[1,3,5,7,9,11,13,15,17,19,21,23,25,27,29,31,33,-1,35,37,39,-1,41,-1,-1,43,-1,45,47,49,-1,-1,-1,-1,-1,-1,-1,-1,-1,-1,-1,-1,-1,-1,-1,-1,-1,-1,-1,-1,-1],"loss_changes":[2.571883E-2,2.6893979E-2,7.118754E-2,1.5592348E-2,4.7778744E-2,2.0122573E-2,1.0797598E-1,1.09924935E-2,2.9956419E-2,5.9952863E-2,5.457185E-2,2.654016E-2,4.8928764E-3,3.5416458E-2,1.8123746E-2,2.3024963E-2,9.371853E-2,0E0,1.4762402E-2,4.5537993E-2,2.3495253E-2,0E0,3.3424105E-2,0E0,0E0,4.4722063E-4,0E0,1.27641745E-2,2.0258121E-2,2.1190956E-2,0E0,0E0,0E0,0E0,0E0,0E0,0E0,0E0,0E0,0E0,0E0,0E0,0E0,0E0,0E0,0E0,0E0,0E0,0E0,0E0,0E0],"parents":[2147483647,0,0,1,1,2,2,3,3,4,4,5,5,6,6,7,7,8,8,9,9,10,10,11,11,12,12,13,13,14,14,15,15,16,16,18,18,19,19,20,20,22,22,25,25,27,27,28,28,29,29],"right_children":[2,4,6,8,10,12,14,16,18,20,22,24,26,28,30,32,34,-1,36,38,40,-1,42,-1,-1,44,-1,46,48,50,-1,-1,-1,-1,-1,-1,-1,-1,-1,-1,-1,-1,-1,-1,-1,-1,-1,-1,-1,-1,-1],"split_conditions":[7E0,5E0,2E0,3E0,3.4515455E-2,2.016E3,3.6E1,6.451001E-3,2.4E1,2.021E3,3.5123367E-2,9.402174E-2,2.02E3,6.8817204E-3,1.3369088E-1,2.850898E-3,6.8589873E-3,-2.6337814E-2,2.021E3,2E0,1.3429257E-3,-5.0031673E-2,9.0088375E-2,4.217391E-2,-6.7504765E-3,2.017E3,-9.803027E-3,2.022E3,3E0,4E0,1.0150552E-2,3.780765E-4,-1.0728492E-2,5.5446304E-2,-3.5865232E-3,-7.5830454E-3,1.2748751E-2,6.423505E-2,1.8384276E-2,-2.966851E-2,5.6805764E-3,1.0042438E-2,-1.3981212E-2,1.0575582E-3,9.402665E-3,5.451344E-4,4.0237337E-2,-1.9707663E-2,3.6800283E-3,-1.0578146E-2,-2.9087067E-2],"split_indices":[2,2,7,1,6,0,3,6,3,0,6,6,0,6,6,6,6,0,0,1,6,0,6,0,0,0,0,0,1,1,0,0,0,0,0,0,0,0,0,0,0,0,0,0,0,0,0,0,0,0,0],"split_type":[0,0,0,0,0,0,0,0,0,0,0,0,0,0,0,0,0,0,0,0,0,0,0,0,0,0,0,0,0,0,0,0,0,0,0,0,0,0,0,0,0,0,0,0,0,0,0,0,0,0,0],"sum_hessian":[4.08E2,3.44E2,6.4E1,2.99E2,4.5E1,9E0,5.5E1,2.82E2,1.7E1,2.3E1,2.2E1,4E0,5E0,2.5E1,3E1,2.68E2,1.4E1,5E0,1.2E1,1.2E1,1.1E1,1E0,2.1E1,3E0,1E0,4E0,1E0,3E0,2.2E1,2.9E1,1E0,2.51E2,1.7E1,2E0,1.2E1,8E0,4E0,2E0,1E1,1E0,1E1,1.4E1,7E0,1E0,3E0,1E0,2E0,3E0,1.9E1,1E1,1.9E1],"tree_param":{"num_deleted":"0","num_feature":"28","num_nodes":"51","size_leaf_vector":"1"}},{"base_weights":[-9.41175E-4,7.025356E-4,-2.1839717E-2,-1.262315E-3,2.6583435E-2,-1.6600985E-2,-1.4558017E-2,7.254055E-4,-3.6556378E-2,-3.72326E-2,6.0559932E-2,2.4060775E-2,-2.2673286E-2,-1.1852367E-3,3.6872547E-2,-9.476448E-2,2.5307361E-2,-7.950338E-2,4.6049416E-2,4.3107726E-2,4.1187596E-2,-2.953756E-3,1.0499668E-2,-1.633611E-2,-7.3522776E-3,-7.5622223E-4,2.5196958E-2,2.8449127E-2,-7.5546834E-3,-5.960331E-3,-3.7207447E-2,-1.2030153E-3,2.1085799E-2,-2.8279567E-2,1.3601482E-3,-1.6730495E-2,2.957343E-2,-9.621888E-3,2.3221074E-2,-9.881884E-3,4.862682E-3],"categories":[],"categories_nodes":[],"categories_segments":[],"categories_sizes":[],"default_left":[0,0,0,0,0,0,0,0,0,0,0,0,0,0,0,0,0,0,0,0,0,0,0,0,0,0,0,0,0,0,0,0,0,0,0,0,0,0,0,0,0],"id":37,"left_children":[1,3,5,7,9,-1,11,13,15,17,19,21,23,25,27,29,31,33,35,-1,37,-1,-1,-1,39,-1,-1,-1,-1,-1,-1,-1,-1,-1,-1,-1,-1,-1,-1,-1,-1],"loss_changes":[1.4133669E-2,1.945906E-2,6.51184E-3,2.5001602E-2,6.079743E-2,0E0,8.6939875E-3,2.338742E-2,7.081669E-2,3.8865045E-2,2.3070127E-2,2.198968E-3,1.0311617E-2,3.6839757E-2,6.352966E-2,1.9450933E-2,1.346842E-2,9.111192E-3,2.6890937E-2,0E0,4.4933803E-2,0E0,0E0,0E0,1.0179816E-2,0E0,0E0,0E0,0E0,0E0,0E0,0E0,0E0,0E0,0E0,0E0,0E0,0E0,0E0,0E0,0E0],"parents":[2147483647,0,0,1,1,2,2,3,3,4,4,6,6,7,7,8,8,9,9,10,10,11,11,12,12,13,13,14,14,15,15,16,16,17,17,18,18,20,20,24,24],"right_children":[2,